23 -15 13 23 18 -6 6 10 12 -54 19 21 1 65 -15 19 8 -5 -21 -13 -12 -27 -14 -36 24 9 -21 -29 -47 5 -26 10 19 20 -6 10 2 7 -1 -13 -8 -22 3 18 -3 49 -71 -44 -8 -2 -19 -6 4 29 -5 31 -21 14 -3 -7 1 -11 26 18 10 -2 -7 -14 19 -42 -3 -4 -15 -9 -5 14 -37 79 39 24 14 -17 -6 3 1 17 30 5 11 9 19 23 28 9 14 -21 49 45 35 -22 -7 -32 -12 37 0 4 -37 13 -46 -12 1 8 -5 8 46 10 22 -14 -5 -60 15 -22 -3 -14 4 0 -27 9 0 0 0 0 0 0 0 0 0 0 0 0
-1 12 -14 15 -12 -11 9 2 -11 4 3 12 -17 -12 3 -5 -29 11 -19 5 -7 -4 6 6 -38 -8 5 4 18 -15 -1 4 -23 -3 -8 -20 -2 -12 -14 -21 4 -2 1 4 -31 5 6 1 5 14 29 -18 10 -2 -1 -31 -4 15 14 -9 15 6 -34 2 -3 26 8 -8 -4 -1 6 1 -11 5 17 -2 -54 -24 -12 10 0 -15 13 -2 -7 1 26 -33 6 -23 8 -7 -14 6 -16 16 -13 -23 -2 -29 14 -4 12 -30 -21 -6 7 -19 -8 11 -12 -10 -30 5 -9 -22 -5 -5 8 -11 -55 16 -27 -5 -13 19 6 1 0 0 0 0 0 0 0 0 0 0 0 0
-15 -23 30 41 -41 5 -5 16 16 -1 4 6 -8 18 27 4 43 -24 21 16 -33 -25 10 -29 -1 -15 12 -43 19 9 -49 0 -10 -6 -19 -2 -13 -16 -31 -36 -24 -14 9 13 15 -19 13 2 17 13 -13 -5 -23 -44 -21 -2 24 17 -18 -2 -11 -1 -37 -32 -5 0 24 1 -14 -44 -1 -19 -9 -19 -33 -39 -4 -4 -3 -36 -14 26 -25 -83 -44 9 20 -28 -1 21 -14 14 12 -6 3 21 59 -26 -41 13 5 7 -6 -2 2 19 -12 -1 18 0 8 -42 -7 17 20 -17 -11 -30 9 -4 7 -10 -9 -13 9 51 5 -6 0 0 0 0 0 0 0 0 0 0 0 0
-25 5 -11 22 10 12 -27 -11 3 -4 -9 -16 -14 29 -12 -23 -3 7 -36 -2 -14 2 25 9 14 7 8 -19 18 -31 16 -30 -1 -21 -35 -25 -2 14 -36 -30 8 -1 -9 12 21 -1 26 -28 -10 -3 -1 -16 4 -2 -18 -19 10 22 -10 4 10 2 -1 -29 -16 -6 11 -10 -19 -19 9 8 3 46 -10 33 10 -17 20 -41 31 -10 -18 -1 0 -13 8 1 -92 -11 -23 -5 -14 4 -6 17 -6 6 -23 6 -4 -6 -57 3 -1 -19 -4 26 -33 -2 14 -14 9 9 21 -28 -49 -15 -8 -16 38 0 -5 12 -3 14 23 -22 0 0 0 0 0 0 0 0 0 0 0 0
0 -35 -15 -12 19 30 1 -8 30 6 -19 -4 -10 -14 6 -24 1 29 20 -22 16 -15 -10 18 -3 -15 6 4 -19 -40 -4 23 -3 6 -25 -10 -23 0 2 21 -15 14 -1 14 -1 -27 -28 0 -29 -14 3 19 25 18 11 8 6 -18 5 -10 -4 -7 -28 21 -3 -20 -5 -5 25 2 0 -12 -3 22 -4 17 22 -2 62 15 -5 10 6 1 -14 13 19 0 0 29 3 -23 -63 -14 -27 32 39 7 -27 2 -21 0 3 1 6 19 35 -17 3 11 22 26 2 0 -31 -6 -18 16 12 11 4 8 7 12 12 -26 -24 -4 0 0 0 0 0 0 0 0 0 0 0 0
-1 4 26 13 8 -7 7 -2 -12 -44 -8 -11 12 12 11 -22 28 3 -13 -23 31 8 -5 -10 -13 6 -20 1 1 -14 -1 29 -23 -9 10 -11 -13 3 9 -11 -17 20 18 -10 -13 -3 -6 -11 -14 21 -4 -9 -1 7 -16 -9 -7 -17 7 -3 -12 -7 18 12 19 11 8 -9 6 43 -13 7 -5 32 -6 -23 -28 -3 -15 -35 -5 -8 -20 -2 -5 17 -15 -5 -18 -2 -17 -24 -29 -1 -5 -7 -3 -10 0 0 -1 -9 -26 5 18 -11 -3 -4 -12 -19 25 -16 -14 7 -9 -4 10 4 -9 10 -4 1 -2 3 4 10 -10 9 0 0 0 0 0 0 0 0 0 0 0 0
-3 11 1 -1 -3 -19 26 12 19 7 -5 5 8 -13 20 -6 -3 17 -7 -23 1 -20 -19 -11 -3 7 6 23 11 11 8 -7 21 -15 -1 15 2 0 -11 -10 17 -9 23 10 -8 11 3 7 -12 -14 -27 -12 -1 -4 19 4 19 -5 -4 -11 -23 5 -4 -9 6 6 33 -17 5 7 -10 -8 12 -18 -2 8 -1 2 19 4 -26 -6 -3 -21 20 -2 5 -4 -9 -20 10 8 14 1 10 -13 -13 4 -15 -26 -1 -12 -38 -7 -18 -21 0 1 1 2 2 -1 -5 11 -18 19 36 -19 -4 -3 2 4 14 14 10 5 25 18 0 0 0 0 0 0 0 0 0 0 0 0
0 0 -7 -13 -5 13 4 23 -1 -15 4 1 19 4 9 27 -4 -2 -1 -5 12 -23 -2 7 -8 -19 -1 -3 2 37 9 19 -9 -2 5 -5 20 -18 0 -15 -20 20 8 -15 16 -7 -6 -7 0 19 -5 -4 9 8 -7 4 18 -2 -11 4 -4 -2 8 -11 13 -14 0 5 1 -6 -17 -21 3 -19 7 -10 3 -11 -18 -5 -13 5 -11 -21 7 26 -16 16 -3 6 2 7 -3 -14 -12 5 -13 -1 -7 -4 14 6 -1 -2 -4 -14 9 -2 5 5 -2 4 12 13 10 -5 0 5 11 -12 -2 5 1 -5 1 17 -8 -10 0 0 0 0 0 0 0 0 0 0 0 0
-17 -9 26 -12 25 19 4 3 -11 8 12 -4 -19 -2 -7 17 17 -14 -10 15 -7 -19 -15 -2 13 6 -13 -10 -28 29 -9 2 -16 31 -34 -2 5 -23 2 6 -1 23 -13 -25 28 -17 4 -19 -3 3 6 -9 -4 8 -1 21 11 -3 -5 -6 -19 -5 16 -8 -2 11 27 4 -29 -18 -6 3 -17 -6 30 -27 -14 8 -15 -39 3 -7 7 0 22 11 -4 -7 12 26 -11 21 -3 6 20 35 19 -20 -7 15 20 20 -6 2 1 6 15 -12 12 -16 -17 7 -4 -2 7 -10 17 -10 18 6 -34 -11 -3 32 -8 1 -9 -1 0 0 0 0 0 0 0 0 0 0 0 0
-21 6 13 -15 -5 -45 -1 5 -9 -9 -14 -12 -8 -9 -8 -38 -25 -18 -4 -10 -2 -10 -9 -12 14 2 -19 -17 -58 -25 13 32 -2 23 3 36 -34 -7 24 5 -47 51 -15 8 -4 7 -37 -32 3 -3 23 -4 -4 -23 -18 2 11 -127 35 2 -6 7 -14 0 -1 5 -22 0 -46 18 11 7 4 46 16 1 -1 -2 -3 -25 18 -15 -21 -4 9 15 -5 28 0 -1 5 -37 14 0 1 0 19 -21 -40 13 -8 42 4 9 -6 -8 -48 1 -15 18 23 9 -1 -14 -31 21 12 -2 -7 11 -13 -18 -19 -3 1 39 29 27 0 0 0 0 0 0 0 0 0 0 0 0
23 26 -10 9 -10 -22 1 6 -1 2 2 6 -8 0 -8 -25 47 -14 -7 23 -3 -29 3 -5 5 2 -20 -7 -23 16 1 13 -9 -17 -8 54 -14 -28 -6 8 -4 17 -7 10 10 11 -1 -4 -13 -10 4 0 2 8 -5 13 -10 -27 7 11 -1 -4 -7 2 -33 -3 -12 -10 8 18 -23 -11 -13 14 54 12 -5 22 4 -3 -12 -7 -4 9 3 -5 5 20 4 -2 -22 6 -2 19 5 -3 10 15 -31 3 -32 4 29 25 -13 -4 0 -1 -9 29 -12 6 6 -1 17 48 -11 -7 11 -4 24 4 4 12 3 46 8 11 0 0 0 0 0 0 0 0 0 0 0 0
-3 -14 -38 -22 -6 29 -31 -12 -16 12 3 2 -5 10 -12 -13 4 9 13 16 5 -7 28 10 1 -12 -13 -58 50 -17 -10 37 -3 -18 -3 0 10 -15 -2 -27 7 12 2 -5 0 -6 5 -2 8 17 -5 -3 33 4 29 -6 -11 -14 7 29 9 2 6 -5 21 2 -6 4 -3 -6 1 -19 -19 -16 -2 -10 -9 8 -20 31 -5 -26 16 -11 -10 28 12 5 7 4 -4 -22 0 -3 -1 -4 9 6 17 13 -9 13 -3 15 8 13 11 7 -5 3 -56 -8 0 15 10 -23 12 -19 25 -35 7 16 12 17 -3 7 -41 -7 0 0 0 0 0 0 0 0 0 0 0 0
-1 10 22 6 -20 1 -20 1 -20 -15 6 12 12 1 -2 -8 1 -17 -19 -4 4 -23 11 -19 -11 13 -4 11 14 4 4 8 8 1 14 -15 -7 -9 19 13 -1 -2 -11 11 6 -17 -9 12 -13 -19 -9 -18 0 18 -15 10 -11 -14 6 10 0 66 -2 27 -17 -13 -8 -6 -12 1 -3 2 -6 -5 -1 7 -45 27 -26 -12 6 -10 -19 4 -24 4 -8 1 -20 51 -6 -17 -11 4 17 -5 -6 9 14 -13 29 -5 -6 -3 13 -6 16 -13 -6 -2 -8 -20 18 -10 -16 -12 -24 -3 -15 -9 8 -15 10 6 -10 -10 14 13 0 0 0 0 0 0 0 0 0 0 0 0
-16 -37 -17 -28 -11 -4 -5 -10 -2 4 -25 -9 -21 -8 12 5 17 -13 3 -11 4 -11 13 -1 -22 -3 -16 -4 -15 -3 25 -28 12 -3 -8 7 1 -28 -17 4 21 -6 7 -12 8 -20 -14 -18 3 -21 24 -5 18 -5 6 -13 -6 -3 -11 -11 -5 -2 -19 -21 -2 -29 15 -26 -5 -12 10 20 -25 -6 -9 -15 -3 -15 14 3 1 -9 -14 -8 -9 -9 5 -1 7 16 16 -2 -3 -13 22 13 -13 -9 6 13 10 3 -6 5 8 -26 -11 -42 -8 4 8 5 -22 -32 -21 8 13 -16 -10 -30 -11 -20 40 -1 -2 17 18 9 0 0 0 0 0 0 0 0 0 0 0 0
4 4 6 11 -4 -30 -8 -22 0 -27 5 -2 -19 -7 2 -21 8 4 0 -14 18 5 -5 -6 -5 1 -14 -8 -1 -14 -1 -12 3 -10 -21 2 -11 36 6 -14 11 -18 -1 -15 16 -2 -36 -13 3 2 3 3 7 0 -21 13 -7 39 -18 15 -6 -10 -10 3 -5 -11 -6 -4 -1 -36 3 11 -9 8 -4 47 -29 -42 27 -12 8 5 2 -9 -13 -24 17 -2 13 -5 -18 27 13 2 -28 -13 2 -15 -2 -22 -34 -5 -1 3 11 27 -3 8 -3 12 -32 -24 -4 0 -9 12 7 -11 -5 -26 10 9 20 -10 -10 4 20 25 0 0 0 0 0 0 0 0 0 0 0 0
-14 -16 9 -7 -2 23 15 -4 -4 11 11 -7 -7 -8 5 7 -16 -11 -8 -3 -1 -3 -26 10 -5 12 11 1 15 -12 -2 -7 15 -15 11 18 -7 6 13 -28 5 34 -1 -5 15 15 -1 -4 -6 9 -7 13 21 6 -15 -4 13 -17 -22 1 -12 -15 5 -5 -28 0 3 2 -13 -11 -19 -23 -17 -3 23 -8 2 -6 10 27 -3 -9 -12 -43 3 0 10 6 13 0 -14 0 7 8 -5 0 -7 -5 -21 -12 1 -5 14 -14 -10 -1 -6 -15 -1 16 7 -31 4 31 16 -12 -33 22 -6 -4 30 15 -5 0 8 0 10 -12 0 0 0 0 0 0 0 0 0 0 0 0
-23 -7 -26 -23 15 -39 -3 -11 -46 8 -6 -37 -1 1 -18 -19 -8 -17 5 -27 -22 10 9 -24 10 -41 7 -16 -16 -28 20 22 13 12 -6 -7 -3 -6 -16 -8 7 1 -18 -1 1 -2 -13 -27 -12 -30 -15 32 16 -8 -14 -36 4 4 -12 -20 5 -27 3 -19 -9 -28 18 -14 5 -31 14 -5 -3 -1 17 -8 2 -22 -13 22 -9 -28 -21 12 1 -13 -37 -11 -30 8 13 -4 5 -21 1 -22 -43 24 12 14 40 -12 -25 10 38 -38 -9 -15 -25 11 16 -5 62 -8 11 -8 -2 -31 2 1 5 -13 -7 -30 -24 13 -6 -1 0 0 0 0 0 0 0 0 0 0 0 0
-1 19 11 -3 -3 7 13 -10 15 -16 25 -5 -1 -5 -36 1 -15 14 -3 -15 -21 6 0 6 0 -17 7 -1 24 -16 -23 2 -6 11 -3 13 -6 -14 0 8 -6 -15 4 4 2 -11 -21 -6 -13 -7 4 -4 -6 -3 -11 14 -4 -2 25 -3 -10 16 -17 -11 -11 13 13 0 -15 -22 11 -33 -36 5 -7 13 21 16 4 15 -10 -7 -11 15 -4 28 6 -8 -12 7 -2 11 10 21 8 -5 2 -12 -27 16 1 20 4 -25 -6 11 -14 -3 -18 -8 11 -9 14 -8 -22 12 -20 -8 -29 14 -6 -2 -13 -13 17 13 0 -18 0 0 0 0 0 0 0 0 0 0 0 0
4 -5 0 -15 1 3 11 3 -6 -2 0 1 31 0 5 -11 13 -20 -5 5 9 20 -4 3 36 -3 11 -1 -4 3 11 -5 -5 3 -4 -8 1 6 -7 -9 -9 11 2 -6 -12 3 9 -13 -14 17 11 3 -16 -7 8 10 11 14 -10 18 9 4 -4 -7 -1 3 -20 0 6 11 -13 -2 4 -12 17 -12 -22 -13 -15 -3 -1 -11 -15 -5 14 -7 -9 1 -13 1 -7 -10 10 -9 -14 -3 13 -11 -6 5 3 -12 -4 -9 -8 -7 -2 11 7 -9 -8 -2 9 18 1 -2 5 16 6 -9 -6 20 -17 -23 36 41 -14 27 0 0 0 0 0 0 0 0 0 0 0 0
12 -9 -13 2 21 -1 -21 5 -2 -8 -3 -2 -19 -21 -1 -13 -7 -15 18 22 -13 -14 -15 -12 43 0 5 -33 -45 -17 26 -10 -2 -5 -6 13 -7 -19 -6 -10 -6 6 -28 -21 25 -33 -20 -8 9 6 -12 -21 -18 10 -5 3 -1 -3 -1 -5 20 1 -8 -27 7 -6 16 -24 0 0 1 -17 -1 -4 0 -6 6 -9 -3 -21 18 -34 -12 9 9 3 -2 -39 -11 11 18 -19 -12 -6 -6 -12 3 -17 6 32 -32 3 31 15 4 -4 -13 15 -27 -10 -25 20 0 -8 10 -6 16 5 -4 -11 -5 10 10 4 7 12 1 -18 0 0 0 0 0 0 0 0 0 0 0 0
-29 -11 23 5 -5 0 -5 -20 -12 -4 -5 -12 4 5 -21 -17 5 -4 6 -6 -31 6 26 2 -38 14 -11 -2 4 -28 -23 -38 -4 -11 -3 -7 -8 -10 -26 -35 -13 -18 -3 6 -18 -6 10 0 -21 -18 -4 -10 -18 -2 -29 -16 -6 7 15 1 -47 -6 -47 12 0 11 11 -22 15 -10 -3 3 25 5 -19 -3 -22 8 -13 -5 11 -8 -13 -2 3 3 -20 4 4 -22 -9 1 -6 -6 -5 -13 48 -4 1 2 8 -5 -1 -17 -7 9 -6 -17 -7 -14 10 -7 0 24 -3 -7 -13 0 6 7 1 -14 -12 4 -1 -16 3 12 0 0 0 0 0 0 0 0 0 0 0 0
47 -8 27 -6 -17 -14 -14 -14 23 5 -11 -26 -4 -5 -2 -10 33 -8 -8 1 1 -35 -25 -14 8 -25 2 -35 -6 -25 -33 5 26 -12 -19 -11 -17 30 -4 -16 -6 -2 -7 -26 15 -4 -9 1 12 -8 2 -4 10 12 -13 26 -11 4 -18 -17 6 -5 -33 -9 -7 -42 3 -2 5 7 -13 -9 6 -19 0 -5 -20 3 -15 0 -29 -35 6 -16 -18 -6 32 -5 29 -7 -32 -17 13 -22 -1 -5 27 -16 3 -4 0 -5 -7 -44 -12 21 -7 4 7 -1 -5 -10 -16 13 14 2 -12 -1 28 -5 8 -6 -22 -3 -6 -19 34 16 0 0 0 0 0 0 0 0 0 0 0 0
21 2 15 -20 -4 -26 -18 11 -2 5 -39 -5 3 19 -4 -7 -4 11 19 11 -6 -17 -6 -15 8 8 7 -20 9 -5 8 17 9 -40 -16 3 -27 13 -18 -15 18 -6 -2 1 -1 32 1 1 21 -10 8 -4 -10 -30 11 -6 1 14 -23 5 35 5 6 -16 28 -2 -15 10 7 -6 -19 -17 -6 -6 -2 -22 -4 11 -13 4 -5 -32 31 8 -9 7 -5 9 -12 -19 16 -4 -20 -1 -16 1 -5 -15 -14 10 7 9 -17 -13 -13 -16 -1 16 -14 -8 1 -6 15 6 19 -1 9 -7 9 20 -6 14 -1 -8 -3 12 -33 -24 0 0 0 0 0 0 0 0 0 0 0 0
4 6 -2 7 28 -2 31 23 10 -54 57 -17 -2 46 -10 8 -4 -21 2 -14 -42 31 -5 9 23 0 -12 -14 -3 16 -24 12 14 5 39 -16 2 1 50 -8 12 12 14 -22 1 -8 18 -63 -7 15 -2 29 0 30 12 -22 -41 28 -1 -19 27 15 2 5 -12 57 5 39 -10 -14 2 3 -22 -1 6 -17 -53 -13 8 29 -23 -44 37 -14 10 16 14 13 0 14 -21 7 -2 17 -48 36 -33 11 13 6 -20 41 -10 20 -8 18 -35 13 -46 15 -38 -31 0 18 -28 -6 -38 -20 24 9 45 -17 13 -14 -8 14 -44 -2 0 0 0 0 0 0 0 0 0 0 0 0
12 -3 5 -15 14 1 16 9 15 -13 -2 -2 8 0 10 11 -5 4 31 6 -16 -16 -31 -4 23 -8 16 14 9 -10 -5 -17 -7 27 -12 5 3 -33 5 11 4 -2 23 -22 26 -3 -9 53 11 -7 -18 17 9 -17 5 -22 -18 3 13 -1 -8 14 36 8 1 21 -28 8 6 -9 14 -9 -23 -9 15 -1 13 7 14 -2 -29 -12 -20 -5 24 2 -25 40 -18 -4 -13 3 -1 3 6 1 -48 -4 7 -15 -2 5 -5 6 3 18 0 -8 -14 -4 9 -22 -20 14 3 16 -23 11 9 3 7 -9 2 -16 4 2 -3 14 0 0 0 0 0 0 0 0 0 0 0 0
22 5 -12 6 26 -12 10 19 28 3 -2 -8 -6 -3 -14 16 13 -4 -10 18 26 31 12 -3 -11 -20 -10 -5 6 -9 -4 -15 -22 14 -3 -8 1 -9 -90 9 10 -7 -13 -8 16 2 27 4 10 -31 -3 -3 -7 -26 -19 -13 22 -7 33 -17 12 11 11 -5 2 9 -21 -5 -3 27 -1 32 7 -15 14 9 -12 15 -9 -10 -15 0 -7 5 -2 -8 -2 -13 24 -5 -7 -4 -4 -9 4 -12 10 8 34 -3 3 0 -26 16 -11 -2 -4 -16 -23 8 -9 -5 -14 -2 28 -1 9 -3 -11 6 1 -10 0 -40 -23 -13 3 -12 0 0 0 0 0 0 0 0 0 0 0 0
-7 -20 20 23 -3 24 1 10 -12 -7 -11 -7 9 -4 1 -9 -24 9 -23 -11 13 -5 -44 31 16 -59 -53 -2 17 -24 -10 32 15 9 0 21 -10 23 11 -1 3 7 5 28 7 34 11 -22 31 -3 -15 1 -7 28 35 -9 -9 -61 2 -22 -4 24 10 20 -37 8 -1 1 5 86 -8 -2 0 -9 -2 4 -23 -26 13 3 6 11 1 -9 6 -25 32 29 11 10 26 -4 24 -20 27 21 -11 -11 19 -7 -32 -3 16 -11 20 8 -25 19 -17 5 -47 2 19 4 2 37 -7 -5 -11 -12 49 -4 -29 -32 7 -6 -16 14 0 0 0 0 0 0 0 0 0 0 0 0
11 -14 -13 27 15 26 -15 7 -1 -75 -1 8 4 30 5 19 9 -9 18 -17 22 -11 16 -17 -34 1 16 -1 -12 -3 -1 21 15 -33 -9 -6 -24 3 20 -21 3 23 13 7 -21 2 -13 1 21 -3 -7 0 -5 -17 13 -8 8 -4 -10 -5 -20 3 -18 -19 17 -15 -2 -37 -4 27 20 -3 -16 0 26 1 -25 -28 3 2 33 -30 15 -2 -11 -57 31 17 15 15 23 -14 -22 12 -17 -10 19 18 28 22 7 15 -3 6 2 -2 -25 -28 -4 -10 35 -19 4 19 -1 -17 -11 -7 -21 -1 32 -8 5 -10 -13 18 16 37 0 0 0 0 0 0 0 0 0 0 0 0
14 26 -22 5 20 -11 13 -22 3 -3 -7 -12 -12 -27 -42 -4 10 -21 -20 -1 9 -8 -18 -23 -9 -30 14 10 2 10 -26 -12 -20 13 13 21 -19 -32 -18 -29 4 19 -16 -21 0 -12 -3 29 -1 -20 -20 -12 1 -26 5 24 -12 -54 -12 -2 27 -6 7 -15 4 27 4 -15 -13 12 6 -25 -17 -11 -5 10 15 4 28 -12 -8 -16 -28 -18 -9 -5 17 1 -4 -11 17 0 28 15 -21 7 -4 13 5 -12 -17 -11 10 15 -2 7 24 20 -21 1 2 -37 16 19 10 13 -52 -18 21 -4 13 -13 -13 -27 5 11 -3 -9 0 0 0 0 0 0 0 0 0 0 0 0
-20 -16 31 34 16 27 14 2 -4 9 -16 9 7 -6 -36 -25 -8 20 -6 -21 -2 -17 -28 13 -6 -25 0 4 -10 -15 17 -22 6 -6 -9 -28 -7 -9 -2 0 -26 -28 -18 -24 2 -38 35 -41 -9 -11 -11 22 -14 -24 -36 21 -41 48 1 -5 -27 43 -10 -31 -8 23 -3 12 47 13 10 13 -39 13 9 0 -36 8 -27 51 3 -13 -22 -20 6 -1 -12 -23 -4 -14 -3 -8 4 -10 4 -1 -38 -9 -6 -4 -11 13 5 9 6 1 -20 19 28 13 5 6 -7 2 -9 -22 2 -8 27 8 -12 21 1 16 -3 -21 -6 21 0 0 0 0 0 0 0 0 0 0 0 0
5 -5 22 -27 6 -14 6 -14 -3 0 -3 34 2 -1 20 -20 0 -21 5 -8 3 9 -2 -6 1 18 42 36 -12 -5 1 7 -9 -4 33 2 -6 0 -14 1 -52 21 6 27 -19 -5 -10 13 -14 26 -16 -1 0 -18 -4 9 -2 -5 17 3 -17 8 -3 4 4 10 -22 4 2 -8 -35 5 21 -9 -6 -4 7 -5 -8 0 -18 -10 -21 -11 -28 -6 11 -27 -14 2 14 -6 1 -2 0 2 16 -4 -7 -7 10 -9 -1 -3 2 2 -4 12 -8 -2 7 -27 -18 11 -20 -2 -31 14 -11 -2 12 38 4 -9 3 -30 -15 1 0 0 0 0 0 0 0 0 0 0 0 0
-6 -4 -10 0 17 2 12 -37 1 18 13 1 18 30 -20 -12 2 -13 23 -12 0 50 -16 -27 -29 9 -12 7 24 3 -5 17 -2 -18 -40 7 -16 -24 9 -12 19 -10 -40 -22 12 -10 -22 -14 -14 -20 30 4 34 -9 -22 -13 46 8 29 2 -25 17 -32 -26 -7 -3 17 21 25 -38 -10 -17 1 12 -5 -26 -2 4 21 -30 56 -6 4 3 -4 -23 15 -27 -14 22 -22 -3 8 11 7 14 -9 29 -9 -4 -31 -9 -22 -23 -19 28 7 -11 -36 25 -6 -17 -8 9 -5 -16 39 -19 7 3 15 -11 -11 2 1 -8 -20 -19 0 0 0 0 0 0 0 0 0 0 0 0
-15 16 7 20 3 -21 15 28 3 7 -5 -18 -19 -9 5 12 -8 4 -14 2 23 6 -3 -2 7 13 5 23 -5 7 -17 1 -5 -8 -9 -20 -14 -32 -19 -8 -3 -7 -6 6 25 -27 -17 -6 -12 -6 19 6 0 -6 -21 1 12 38 -23 -8 -1 -19 17 -28 -4 -17 3 -18 10 -23 17 22 1 -11 -25 -5 38 -1 -13 -21 20 11 15 -7 -21 -21 -3 -20 -17 -8 -40 34 3 19 -9 -14 -28 -45 -46 2 -12 0 0 -24 -22 -3 -2 -27 14 -7 -28 35 -10 2 -29 -4 -19 1 8 -1 5 -1 6 4 7 -49 5 -27 0 0 0 0 0 0 0 0 0 0 0 0
24 14 -14 6 -17 30 -5 4 -27 -42 -2 3 1 -21 -24 -24 57 25 19 -37 -11 4 8 1 7 -16 -11 -5 7 -14 29 -26 11 20 -4 -35 0 29 2 -3 18 19 -16 35 -23 19 6 -23 26 16 6 6 -16 17 -8 3 -40 43 16 5 -12 -1 -8 67 -6 -25 3 -6 7 -13 -9 -8 -4 -4 4 -19 -5 3 30 8 18 -13 15 5 -6 -30 -43 14 -10 -16 -37 -14 40 18 -7 -18 -11 -9 -3 3 12 -14 14 4 18 -29 -4 20 -30 -3 37 26 20 -3 4 -73 11 -14 29 -20 -17 0 11 -50 12 17 -15 17 0 0 0 0 0 0 0 0 0 0 0 0
7 9 -7 -9 -7 -25 0 8 12 -16 -16 7 -4 24 -16 -12 -12 1 -31 -2 17 -1 -2 10 -5 8 2 -5 -9 26 0 20 -2 7 33 -28 5 12 -8 -4 15 32 -12 6 0 11 12 -4 8 -9 19 4 -15 22 7 -30 15 -16 -5 -7 6 27 4 -5 11 19 -8 -17 -18 14 13 18 6 -12 13 -27 1 23 18 -9 -25 -4 -49 8 -6 9 12 -7 -32 14 -2 -30 48 -11 -29 -24 -3 9 -21 5 -6 -1 32 -12 -29 22 -6 2 -16 4 -11 11 -12 1 -2 -45 2 -11 37 36 -23 -8 -9 7 -16 -5 -16 -36 0 0 0 0 0 0 0 0 0 0 0 0
-23 5 -14 0 0 16 -9 11 12 -5 8 -12 19 2 5 16 21 9 18 -11 1 -8 -2 0 4 8 -9 -3 -13 -1 0 -4 -1 16 7 4 -5 -7 -1 -11 -8 -14 13 14 -8 -14 -2 12 -10 -3 -12 -13 -5 -13 -15 -7 15 2 -11 68 -4 0 5 -12 11 -4 -17 -20 3 -5 -8 -23 -7 11 -6 4 -17 1 -5 -6 0 8 -4 -44 21 0 14 -6 -16 -19 0 19 7 9 -10 -11 39 -3 -1 5 1 2 3 5 -8 -2 -13 -7 15 8 -1 7 18 18 -3 8 12 -9 -4 0 -11 -1 9 -15 14 17 -7 -4 0 0 0 0 0 0 0 0 0 0 0 0
-23 14 -13 10 13 13 1 -19 7 19 -14 11 -32 40 8 -19 8 -13 9 -2 2 -12 3 -4 -9 -6 -5 14 -21 1 21 -10 9 -31 6 -10 -21 58 30 -12 -16 5 30 -12 22 4 -17 -18 13 -5 -15 5 15 -6 17 24 4 -8 1 17 -3 -7 -8 19 9 13 -6 -35 -14 0 5 -15 -2 38 3 -49 -12 -25 -10 13 -6 -9 -8 4 -3 -18 -1 6 18 -7 -35 -17 -1 -2 -21 16 -5 34 0 -49 -20 23 1 21 9 9 14 -21 -10 8 -13 -20 -18 -5 -5 8 12 -5 -17 27 -12 -24 -12 -8 10 -2 -8 2 0 0 0 0 0 0 0 0 0 0 0 0
-8 8 -6 -8 -3 4 -17 7 -15 10 6 4 -9 -15 8 -20 11 -2 -31 8 -9 -17 13 -25 11 12 -27 36 9 -16 7 -9 -6 20 21 37 -22 -23 -5 -17 -18 15 -3 -3 -18 5 12 -24 -5 -26 -3 13 26 -14 -21 16 13 -26 32 6 -13 -20 -13 -23 -2 -8 -31 -5 -19 -9 -13 16 -2 -4 -15 -7 21 -15 -9 7 -15 30 4 -6 10 3 -23 -17 -10 14 -15 -42 13 0 -11 11 0 -26 6 -2 -11 -27 -10 14 1 7 -15 2 1 6 13 7 -15 8 3 26 -9 15 -12 26 7 0 -12 24 -21 -2 -2 1 0 0 0 0 0 0 0 0 0 0 0 0
13 6 5 -17 -21 -24 -21 19 4 1 6 9 3 -5 15 -10 4 -4 2 -17 14 -13 13 3 -7 18 10 -10 -26 -30 -13 2 -3 9 -6 18 -15 -2 -1 2 14 0 7 2 12 -4 7 -13 -14 6 5 -6 33 1 -29 -44 -12 7 6 -4 -7 26 6 21 -8 -39 -11 -27 16 -18 33 -11 -2 -1 -24 23 -7 32 -6 -9 14 -45 23 -10 3 -11 7 -19 -3 12 -1 1 -11 7 22 -1 7 -20 -1 -5 -8 4 25 -11 -27 11 2 -10 22 5 -5 2 -6 1 0 24 22 -8 2 -3 -10 -8 -3 -18 -22 -5 -17 19 0 0 0 0 0 0 0 0 0 0 0 0
-10 30 -12 -20 -8 -13 -5 3 25 -8 -11 -9 12 0 1 -5 -17 0 -13 6 -5 -18 21 -5 6 -6 9 -7 11 1 0 -27 6 17 -1 -4 -23 -4 -19 -30 -5 -11 -4 0 -3 -6 9 10 -18 32 23 -4 9 6 8 0 -5 9 -22 -9 6 4 -18 -4 20 -13 -8 1 -8 -3 -19 12 15 12 5 0 -4 -4 -11 -9 -9 -13 -4 -100 -21 23 0 6 -12 6 7 13 13 0 26 1 21 2 -7 -19 21 -6 -1 10 26 -15 -1 17 4 18 -12 12 0 27 -8 7 17 26 -14 -24 -10 0 -10 -1 51 -20 -10 9 0 0 0 0 0 0 0 0 0 0 0 0
-18 6 -20 23 -4 6 2 13 -20 3 8 -9 -6 -11 -1 39 -17 -7 -8 22 18 36 23 -23 -12 -1 13 12 40 32 11 -6 -6 -1 10 16 5 -6 -21 -13 7 27 5 22 -7 -2 4 34 -18 -14 6 -19 -12 -13 -5 -16 6 -35 29 0 -14 2 -19 23 -38 -2 1 -9 17 2 -4 3 10 22 -35 -2 3 24 -3 -30 -10 8 -14 -12 7 30 -9 2 -3 11 -3 2 8 11 11 -18 -5 -7 -36 -20 6 5 -6 -47 1 -11 -11 -21 -20 10 -51 4 6 18 0 -17 -32 -13 -11 -17 14 -8 12 -8 4 -3 7 10 0 0 0 0 0 0 0 0 0 0 0 0
6 3 31 13 -31 -9 -7 11 35 22 6 12 8 -2 27 -15 -8 -18 7 -41 -7 29 14 21 1 19 -41 -43 0 -19 9 27 -16 15 -38 8 -49 -11 -7 -10 24 15 -22 25 16 -13 -16 -6 20 -8 0 2 20 -29 43 37 -17 -9 1 18 -8 -5 -9 49 -1 2 22 -8 5 19 4 9 5 19 7 14 -21 31 -6 -9 -1 8 27 -7 15 14 -15 15 -3 -3 9 -17 -14 13 19 -38 -21 8 -10 -42 -18 -4 -9 -2 -44 9 6 -9 -2 -6 -20 30 -7 12 -13 -21 9 -29 2 -12 21 0 -22 15 -12 -33 -1 -23 0 0 0 0 0 0 0 0 0 0 0 0
-27 10 -10 -12 8 -38 5 1 -8 4 -7 0 -4 -28 45 24 12 -4 -45 -14 -13 12 20 26 -4 -16 -35 0 -16 -18 19 -10 -21 -4 -20 -14 -14 -21 -11 4 -19 -1 26 -21 39 61 7 -39 -18 4 17 14 -28 59 -14 27 -39 14 0 -13 2 -23 35 26 0 -17 -3 -14 -21 20 5 -18 16 17 1 83 -6 19 -40 -3 -12 -24 -12 -2 1 -9 -16 30 -22 -26 16 9 -13 -20 35 -6 -14 -40 14 0 6 0 26 -6 -20 19 -15 0 -34 10 8 -9 10 5 7 -8 38 -9 48 -8 83 -7 -23 7 -25 5 15 6 0 0 0 0 0 0 0 0 0 0 0 0
40 -10 -5 -4 -6 27 10 6 20 2 15 -3 0 -2 -12 -18 -9 -16 0 15 -26 -12 25 -29 7 -5 -22 -29 -13 26 -28 8 -3 -11 -11 -45 -22 4 -6 -3 34 2 4 9 -10 -25 -6 -12 -6 -33 -9 0 -20 8 11 -5 -3 30 -11 -3 -11 6 -16 -9 -8 -6 2 -37 -41 1 -11 13 -36 -5 8 -7 -28 -8 -12 10 2 -58 24 -6 -18 5 -10 -28 -17 4 0 -15 -15 11 -3 -24 36 -2 3 23 -10 -8 5 -1 -5 -3 12 0 -3 -21 -8 -31 -20 5 31 -43 27 -9 14 3 -16 14 14 2 9 16 31 25 0 0 0 0 0 0 0 0 0 0 0 0
2 11 -10 -15 8 26 12 2 4 32 29 2 -5 -39 -19 -14 -8 -9 -13 -25 36 -9 -1 16 -4 46 -15 -1 16 -28 -33 -7 -3 -26 1 1 1 26 -11 0 5 -7 -18 -1 20 54 17 -20 -14 11 -14 -11 -20 27 13 -14 8 8 -1 5 -1 -19 2 -2 -14 30 -1 11 11 14 5 -15 -3 3 -5 26 -15 -23 12 14 -26 -37 12 -8 -5 18 19 15 -14 10 15 42 -7 22 -12 4 9 -28 -8 16 2 -10 11 9 -16 28 27 -12 -25 -19 -2 11 4 -8 1 -22 26 11 21 -7 -26 -14 13 0 -4 -2 0 -7 0 0 0 0 0 0 0 0 0 0 0 0
0 12 22 -25 -22 8 16 -15 28 -23 5 -8 13 -22 -10 -3 22 -18 17 3 -29 -25 7 -5 2 -9 -3 4 33 1 -2 -9 -6 18 -20 -7 3 -17 -14 10 -12 4 12 21 -6 14 22 26 10 -14 -1 8 29 -16 3 -8 16 -8 -12 25 -14 -2 29 -33 0 -27 6 -15 -1 12 4 -14 14 -25 -28 -8 8 -2 25 -18 21 50 7 -5 -6 27 8 -10 5 -21 22 9 -6 10 25 -11 -17 -9 -67 -50 -26 2 -1 4 -50 1 29 2 -24 19 14 -22 -8 -11 7 2 -11 -11 4 9 13 10 -13 9 -6 -5 23 -3 0 0 0 0 0 0 0 0 0 0 0 0
10 -25 -23 -1 13 -25 9 9 -1 -14 -9 -20 -2 -5 7 5 6 -8 9 -7 -19 21 -1 -12 1 -2 -7 -17 -2 12 12 -5 25 28 34 35 -8 7 -3 -22 -16 -27 22 6 1 9 -13 -23 -10 0 18 6 -14 -19 0 3 -17 0 29 17 -12 30 9 -2 2 24 -8 21 11 -4 4 14 14 4 -18 -1 27 6 1 -8 8 2 -12 -1 -12 -23 3 -14 -14 11 6 8 2 -21 -1 -3 18 -21 -10 -13 -9 -9 -20 -7 -7 12 -14 7 1 -4 -1 3 -13 3 9 8 11 -6 7 -11 38 10 -5 4 4 -3 -18 -2 0 0 0 0 0 0 0 0 0 0 0 0
-3 5 12 -8 25 1 10 3 -1 7 11 19 2 2 -16 -24 11 -24 9 -10 -22 8 11 53 35 18 -15 14 13 12 9 -3 -11 11 21 10 31 28 -23 3 -5 32 -2 26 -9 0 4 -28 -34 -18 -12 8 17 28 -42 -28 10 -19 -10 -1 14 -4 27 -7 0 -1 2 21 -9 -26 -4 -22 -10 18 -10 -42 13 2 -15 5 9 5 -13 -8 -21 -10 -8 7 -8 -10 -13 8 -2 4 -4 -3 14 14 -14 2 11 32 -2 4 12 37 1 -18 20 7 -12 39 -27 2 8 14 3 -5 -45 8 18 -6 0 7 13 -1 2 -25 0 0 0 0 0 0 0 0 0 0 0 0
-26 2 4 -33 0 -17 5 -6 5 11 -14 -19 -13 -20 -18 -18 -62 -14 -13 -17 -13 1 -4 6 13 -3 -11 7 -25 -34 14 -23 2 5 -6 -11 -26 -10 1 -4 -18 -12 -28 -1 -10 6 -23 -15 -1 -18 28 15 -1 -7 -6 0 -16 34 -5 -9 29 11 -7 -5 -10 6 -7 -18 -5 -16 -18 -10 8 58 16 15 -5 -13 11 10 -4 -14 -4 -4 14 -5 -9 14 -10 -2 5 3 10 0 -4 10 3 -17 -26 -1 -5 6 6 -18 -18 -14 -16 10 -14 14 -3 6 14 -2 -7 32 -21 -23 -18 -17 -3 -14 -10 -7 3 -5 39 -15 0 0 0 0 0 0 0 0 0 0 0 0
-26 2 11 0 -3 2 -15 7 -3 -9 21 22 33 -1 -11 -9 30 -25 22 18 16 -13 8 0 -1 -14 -6 -2 -14 -22 5 0 -9 -19 -3 -3 3 0 2 -28 11 -4 3 16 9 -7 3 -7 -19 -6 16 -10 1 -9 0 16 -5 -9 -11 15 -2 2 9 -17 -5 -11 -48 1 -3 9 -39 11 -14 -16 7 -9 -3 -3 -9 -6 -15 0 -2 -90 8 -15 -7 -17 -4 6 -10 9 4 13 20 -1 22 8 -18 -12 11 -3 7 21 9 -4 0 -15 6 19 -6 15 1 37 9 -12 -16 8 3 13 2 5 4 -9 8 -2 -7 24 0 0 0 0 0 0 0 0 0 0 0 0
-28 -20 -19 -5 -1 -7 -20 1 22 -6 -6 12 -17 -25 15 22 1 19 -3 7 -4 22 39 0 -22 11 20 19 6 -21 -13 4 62 9 6 -23 28 4 -36 -13 -39 -26 13 -5 9 -4 -3 -27 14 12 12 -2 5 1 -10 13 -24 25 -45 -12 -27 27 22 -21 -32 -14 -36 -14 9 4 1 6 -14 -7 4 21 6 3 11 -5 -8 41 -24 25 -13 -12 1 15 -9 4 -2 -5 7 -13 -12 -23 -42 -11 -11 -20 25 -5 -16 25 -17 1 -6 -7 2 50 4 5 16 14 -22 -8 4 -12 8 -27 6 -9 -4 -28 6 -19 31 3 0 0 0 0 0 0 0 0 0 0 0 0
-2 -26 29 20 -5 -13 24 5 4 -54 -36 1 -7 -7 13 17 13 27 1 -33 16 17 34 -23 -29 -1 -47 -1 32 10 -28 -23 -26 10 20 25 -4 -13 89 0 22 5 -14 21 41 -10 55 -50 5 0 3 10 -1 40 25 -18 -29 -2 3 -6 -36 -7 19 -2 21 15 1 -13 10 -18 6 -3 23 10 5 -3 -15 13 -7 -4 -15 -12 35 -6 -34 17 17 -6 18 -14 -16 11 19 -24 -5 -31 48 -11 7 35 33 8 26 19 6 52 29 5 -15 -2 18 -7 11 2 27 22 25 20 -15 18 -6 5 -23 -8 -3 22 -43 0 0 0 0 0 0 0 0 0 0 0 0 0
23 41 -18 -26 -3 -13 22 16 18 -2 2 -7 17 7 -24 13 14 16 -13 -11 -12 10 -12 1 -1 28 17 -25 -3 3 -9 -23 -3 7 8 -9 15 -16 2 -13 26 -25 -14 -20 0 -2 11 -14 -10 -12 -14 -8 17 -12 5 -19 9 10 -15 -7 6 -2 15 -13 12 -8 -14 -15 4 -3 19 2 -3 -8 -17 -11 2 -1 2 -11 -8 -2 -16 -19 2 7 5 -12 26 -6 3 16 -10 13 14 -12 17 -9 3 11 -18 4 -7 3 28 1 -5 7 13 -17 11 -8 -9 3 2 9 -12 8 18 15 -15 24 -12 -19 11 -24 -2 7 0 0 0 0 0 0 0 0 0 0 0 0
-1 -5 3 -11 14 -12 -8 -18 1 9 3 -1 4 3 -7 18 16 16 5 8 -18 -10 -21 37 35 -4 -11 -14 -4 -16 -4 5 0 10 25 -1 -21 9 -38 -10 -15 0 -30 -22 0 -43 -6 30 -5 -1 32 29 -7 -26 -16 -45 -17 -13 -7 -14 17 -24 -2 13 -19 -6 10 -18 18 -4 -3 -10 33 22 -13 13 3 1 5 2 11 -17 -25 0 -3 -11 2 27 14 14 -3 14 -11 0 -19 6 -13 13 -8 1 -22 16 -1 24 -26 -16 -27 3 35 8 -5 11 11 17 7 3 10 -38 14 -16 -19 1 -7 5 -17 4 -1 -10 0 0 0 0 0 0 0 0 0 0 0 0
-15 2 9 -18 -13 -9 21 -19 3 7 -7 0 4 -11 -28 -11 10 -59 -2 36 8 14 14 38 -4 13 -26 -1 -28 -23 8 -27 -9 -2 -2 -27 -9 -9 -16 -21 -11 -25 -13 -7 -9 8 -18 3 15 -12 -17 -3 28 -10 -6 21 -3 42 -19 13 0 1 -2 -19 8 -19 5 -31 23 7 3 0 7 -14 13 -3 15 -9 0 4 22 1 -20 12 -20 9 6 -8 -27 26 42 -10 3 4 -8 12 -2 26 13 0 -7 -13 41 -24 -12 -7 32 13 0 5 -21 -9 -20 16 14 -12 -13 -9 -13 -10 2 2 -1 15 -21 20 10 -11 0 0 0 0 0 0 0 0 0 0 0 0
27 4 -32 -4 7 -1 36 5 -6 23 -12 -23 -12 -11 22 -10 6 -1 -9 5 -26 2 -5 2 1 -20 36 -55 26 -19 23 8 -4 -7 8 4 6 -7 4 0 10 5 -1 -17 4 7 -14 -10 21 -13 4 10 -11 -6 18 -6 -17 -1 10 -5 6 -17 2 -18 -1 -4 27 12 4 -8 3 3 9 -42 13 2 12 3 -16 37 30 -8 -5 7 -4 26 3 -9 -3 -12 -1 -9 -6 -4 32 -9 -12 -1 2 1 -15 -13 -7 15 13 -14 4 -9 -16 -25 7 -14 -10 -7 8 -15 -39 8 21 -4 -21 -2 -3 25 -12 -21 -11 -27 0 0 0 0 0 0 0 0 0 0 0 0
1 11 -9 -8 -6 11 -14 -17 -9 3 11 38 11 6 -2 -1 5 5 -11 -13 -6 -18 -6 9 -3 9 7 5 -3 5 4 -5 2 -8 -2 -2 1 -12 3 1 -47 -30 -17 -28 1 -5 -2 -13 -6 34 -4 -30 -20 -7 -7 -12 -2 11 -31 -13 -10 11 9 -4 12 19 -47 8 7 6 14 -18 -34 -8 2 -1 5 11 3 -25 15 -6 -7 -6 3 -26 -21 -4 1 -3 16 2 0 22 24 10 -38 1 -17 7 1 4 3 -12 -6 -12 13 6 -5 -8 10 21 -5 11 -23 -7 14 47 13 43 -6 32 13 -7 9 -1 6 11 0 0 0 0 0 0 0 0 0 0 0 0
-7 -27 2 -17 -5 -25 -23 7 -17 22 -5 -2 27 0 16 28 -23 19 -4 12 5 -2 10 20 -2 -14 -23 -4 11 19 9 -11 -23 -1 -6 -15 -12 1 -3 -10 -2 -3 9 -5 -20 -6 12 -10 4 3 9 25 -15 -11 18 3 10 27 -2 1 2 1 -10 -17 -3 -10 -11 -17 -8 -15 -17 4 6 9 -10 10 -3 2 -24 -15 3 -11 -17 -10 34 14 0 -18 -13 0 -9 7 5 -22 -8 7 -7 -11 3 -5 4 -7 8 4 -29 -2 0 -8 6 -15 -21 -3 -6 7 9 11 -2 12 -3 13 -3 0 -23 -3 31 -5 20 6 0 0 0 0 0 0 0 0 0 0 0 0
-3 -10 -2 3 12 18 -14 -16 -1 -37 -12 -20 0 1 0 -27 7 -9 -14 -30 5 11 7 1 28 11 7 -39 -35 -9 -3 1 19 -12 1 29 -13 -4 19 13 4 0 0 27 -8 8 -50 -4 -3 -25 -23 -18 -4 -8 11 10 10 -33 -14 7 -14 8 -12 -15 -16 -26 9 -33 -37 10 -18 20 -26 -36 9 -3 -16 -41 10 12 22 -13 50 2 2 -12 2 -19 1 0 38 -14 14 13 -12 3 2 -6 -3 -39 -16 -49 13 35 -8 24 7 6 -10 -4 -41 -5 -27 -5 11 28 6 14 27 -15 17 5 15 0 22 10 -22 -2 0 0 0 0 0 0 0 0 0 0 0 0
0 -5 -3 2 3 -22 -16 12 1 43 13 -2 -22 16 15 -13 0 0 -4 -24 0 -25 -2 -17 -26 2 -2 -28 15 -11 25 24 -18 -31 -41 4 -32 2 -20 -13 -7 -6 -15 -19 -5 18 9 -20 10 -8 15 8 -18 -4 35 5 -38 22 -15 -22 17 -6 -15 -7 7 12 -7 11 15 -14 -3 -9 15 -5 2 -4 -27 0 -22 -3 2 -41 16 -17 12 23 -19 9 -10 -8 8 18 12 -4 -20 10 -4 6 22 7 24 20 11 20 -10 -19 -21 -13 25 2 12 -1 3 5 -12 0 1 -13 -29 -11 9 -15 20 -31 8 4 -30 23 0 0 0 0 0 0 0 0 0 0 0 0
-1 11 0 5 -13 -26 9 -13 11 4 -10 39 -35 -2 -11 -17 -6 -4 -8 -29 2 -11 -16 -10 -10 20 -21 0 1 -1 -7 6 -13 23 3 10 3 -11 0 -17 -25 17 9 10 -3 -6 -2 8 -17 -8 20 -21 -12 -4 4 -3 -7 -16 29 -10 3 13 -13 -6 -2 -6 9 6 -6 -7 -40 -4 21 -11 8 4 -20 15 -6 -25 3 21 -20 4 23 -12 -7 12 1 -1 13 -9 -15 -10 -11 -5 4 0 -2 3 -8 5 -10 -5 -10 -8 -1 15 29 -25 2 0 -18 25 -15 0 18 48 -3 5 18 53 3 -18 0 -10 -1 0 0 0 0 0 0 0 0 0 0 0 0 0
26 -10 25 -5 23 1 25 26 -15 -12 -18 -21 3 29 20 39 4 -39 -16 -9 -10 1 -6 -14 -23 13 -4 3 19 -13 -8 -10 -25 -8 -16 -5 10 -38 -9 -9 2 24 -17 -14 47 -27 4 18 -16 -5 6 51 -42 12 -28 9 -7 -3 -35 -10 -5 -5 28 -34 27 -3 -1 -4 -12 -26 -13 -4 8 -24 14 -22 -22 -1 -32 -16 16 -5 -49 12 -9 1 6 -5 17 -20 13 -19 17 -25 -49 5 -51 32 -12 8 -24 3 -8 -3 -28 -18 14 4 64 -1 9 0 -41 14 18 -3 -10 -25 -12 14 11 -6 25 -1 -2 68 -10 6 0 0 0 0 0 0 0 0 0 0 0 0
-18 6 19 15 -38 17 -33 7 -11 -9 -6 7 -17 20 -41 -56 -6 -16 -6 -3 -15 19 -2 -9 -4 17 -21 -35 23 -10 8 -10 13 -13 3 5 -5 8 -20 1 25 5 -25 -19 -13 7 21 -22 -27 -22 11 20 -33 4 -19 -11 -13 -29 1 -12 -12 -47 -4 -13 -5 9 4 -26 17 17 -12 -10 1 21 -33 -34 4 4 19 -15 -9 -3 -39 4 -2 -5 -5 8 -62 -6 4 -19 0 5 7 35 -26 18 -8 24 -9 -4 -7 -7 -9 7 17 35 -20 -11 -3 22 70 -2 33 6 -15 -10 22 -16 -2 19 7 9 -6 -6 23 -65 0 0 0 0 0 0 0 0 0 0 0 0
-25 -11 -14 -4 -18 3 -22 -17 19 -7 -15 7 16 -19 26 -13 14 -9 15 11 -8 -12 -3 -34 11 7 -6 -14 21 0 -24 27 -21 10 29 -14 -11 3 -4 -42 -14 24 -26 2 -14 13 6 -26 12 -4 1 2 -20 6 -25 6 -1 14 16 -28 -16 -19 -14 -11 3 44 31 11 16 7 -6 -16 13 23 -8 14 17 7 -6 -1 -35 3 -33 -7 6 4 11 -4 -8 -13 20 -7 -2 -19 -12 17 -3 -1 -9 -9 -18 23 -5 10 6 9 28 -6 2 0 -9 -14 28 37 -27 -18 7 2 7 -3 -8 -11 -10 6 24 -26 -20 10 0 0 0 0 0 0 0 0 0 0 0 0
5 -50 -2 -37 -5 0 -18 -26 -1 -6 -8 -1 -23 2 17 9 20 0 4 0 -16 15 3 18 30 35 -12 15 -1 5 13 2 29 39 -14 3 14 5 -32 -1 -4 35 -14 2 -7 -21 4 -5 -3 4 -3 6 5 -34 1 7 -6 -26 -10 14 0 -13 12 -23 43 7 1 23 17 -8 32 6 17 8 -3 -12 26 14 25 -3 13 24 -38 -6 6 0 -3 9 -13 17 20 -1 11 -36 -1 26 61 -15 2 -9 -15 -22 -13 1 11 -13 -10 -31 -10 -14 -1 -14 -2 -2 -9 20 2 11 -12 -23 -2 -7 -11 6 4 -20 -28 10 0 0 0 0 0 0 0 0 0 0 0 0
7 2 -2 23 44 20 -14 12 30 -16 -5 6 -6 -29 8 18 10 14 11 21 13 2 -11 -2 -13 19 -8 35 -14 9 -13 6 -11 -9 25 2 12 13 7 -1 -13 6 -12 10 9 -3 9 3 22 -9 -1 36 50 -15 -4 -10 16 -21 10 -1 -16 2 -3 1 -27 2 -10 34 -10 22 3 -27 -6 18 -14 -9 0 5 2 8 16 50 1 -18 19 4 -3 9 2 12 8 23 -12 7 -1 2 -35 -4 -32 -29 -6 29 4 19 24 0 2 -1 15 -11 9 -28 -9 -2 -8 -14 -2 36 7 9 -21 1 8 -1 -27 -33 -12 -9 0 0 0 0 0 0 0 0 0 0 0 0
0 -31 -4 6 -4 -6 -24 -4 23 -108 -70 -7 6 36 24 1 -5 10 -20 8 22 5 44 -23 17 12 -27 -5 7 7 -16 33 -31 -9 18 59 28 44 55 -17 -9 15 24 -17 -14 -30 -9 -48 -5 13 -2 0 -29 14 -12 5 -34 -54 -18 8 28 30 11 30 -21 -2 5 -16 17 15 -10 9 83 3 15 -9 -34 -9 0 -17 7 18 14 5 -12 24 19 9 27 6 15 -11 12 -65 -17 -10 24 49 25 6 36 -17 -30 -15 -5 1 40 20 -23 -27 43 3 -26 13 -2 22 -19 -6 15 -10 19 -31 1 21 -21 10 -19 6 0 0 0 0 0 0 0 0 0 0 0 0
11 27 -21 -19 -16 1 -7 -17 -22 -2 7 -30 11 50 12 23 -45 1 17 16 -21 -29 -5 -44 -9 -24 4 7 -13 3 -19 -5 21 -26 16 3 -8 -15 -16 -6 -5 0 -6 19 6 -9 2 2 2 2 -23 -34 -35 -76 4 -12 41 -28 52 22 25 -32 0 -25 -23 -8 -6 -3 5 -21 19 8 -11 -7 36 -43 -2 -9 3 -15 7 -24 -32 -29 -9 8 12 28 -6 6 -6 8 -19 20 6 -19 18 16 -12 61 3 -12 0 17 -26 1 20 -29 15 -43 -6 8 7 4 -30 -33 15 -16 0 -6 -5 -9 -3 24 -5 -13 -10 7 0 0 0 0 0 0 0 0 0 0 0 0
1 -44 0 3 11 7 17 1 -1 7 -14 10 -8 14 -11 9 -19 -6 5 4 8 1 6 -3 14 -44 -1 -6 10 24 -3 0 36 34 -11 -19 35 29 -25 -2 3 -102 -15 18 -5 -40 8 3 1 -7 -19 11 -10 15 0 25 2 83 25 1 23 -1 11 8 -4 9 7 9 48 -32 1 3 30 12 -5 7 -9 8 -34 -3 -27 39 -3 -15 2 27 0 -6 -20 5 -3 42 -2 -42 5 -3 20 41 4 7 -1 -13 5 -11 3 -5 -7 5 -28 -2 -16 -27 -1 2 -17 -2 20 -12 2 2 9 1 -7 17 -9 7 -30 -9 0 0 0 0 0 0 0 0 0 0 0 0
-24 -6 3 21 18 -8 24 -11 -15 59 -17 -10 -8 3 -11 1 -27 -18 3 21 -18 25 17 -7 16 -23 0 8 -27 -17 16 -9 14 -5 7 18 -45 13 -12 -9 -22 20 -11 23 6 48 17 -23 -4 -8 21 3 26 -20 -34 -16 -2 -43 -1 -16 -24 20 10 -18 40 -1 -18 -3 -32 37 6 17 -1 14 5 4 -8 2 60 -20 3 -26 -9 -2 -14 -23 -6 -29 -3 28 -11 -38 -11 -5 -10 11 2 0 8 -5 -10 21 -10 -4 19 2 7 23 -28 7 -18 -10 -25 -10 -8 16 2 -1 -17 1 -12 -16 -19 -12 -6 1 -27 11 0 0 0 0 0 0 0 0 0 0 0 0
-11 -6 13 10 20 14 11 31 9 -13 -8 -12 8 4 5 -6 -16 7 1 5 -15 7 -46 -17 -16 2 -3 13 -22 -6 6 4 13 40 15 3 47 6 -22 -23 -36 -5 -2 17 12 20 -14 5 4 -21 -2 -34 -14 7 -11 -9 7 -2 -53 -10 10 -25 -13 -16 -2 26 -6 14 27 3 68 -24 6 -19 -12 1 4 8 -5 -21 -17 28 -9 -10 3 4 0 -28 -28 -3 -14 12 6 -1 -6 -2 38 8 -26 11 -4 21 -40 17 -7 -17 -4 12 -14 -7 2 18 10 24 5 18 7 -3 15 -14 -4 2 2 5 0 9 -2 3 0 0 0 0 0 0 0 0 0 0 0 0
27 5 21 -13 72 -10 -1 -2 54 3 -1 25 -13 -5 7 -16 20 -21 -11 -16 -40 14 -25 -22 9 5 -10 11 31 -14 -17 3 -7 15 -14 -7 -5 21 40 6 16 6 13 -9 0 0 19 -20 -7 5 -4 9 -4 13 21 21 -9 5 -2 -6 -2 -18 -15 21 20 -4 4 -1 5 2 -10 5 5 -3 -14 35 -6 12 41 -8 14 -14 -12 -2 25 -9 21 -5 12 -1 5 -12 -59 -1 -3 7 -20 -10 -1 15 -17 3 -3 -41 -4 16 2 0 -19 27 0 -9 0 -5 21 -13 15 -8 -20 1 30 -10 17 9 -8 1 0 10 0 0 0 0 0 0 0 0 0 0 0 0
-19 36 -16 13 3 17 -44 -12 14 4 22 13 -22 -8 11 -17 14 -26 -29 -17 -22 13 -6 -6 6 -3 4 14 10 -6 -9 -4 -22 7 -2 16 0 7 -1 -33 -38 71 -29 -10 -16 -6 14 -10 -2 -8 9 -9 24 -10 -11 25 -18 -33 13 6 23 -21 -42 9 -23 1 11 3 -20 9 -5 -10 -31 -2 -12 -25 -10 -4 6 6 15 5 -57 1 2 15 5 -3 6 -13 -9 -29 -7 24 -24 -46 -33 -17 -12 -15 16 -16 -21 -2 6 1 6 13 -30 -2 8 -11 2 34 -21 8 9 9 -5 -1 0 4 -15 7 -9 1 -9 2 0 0 0 0 0 0 0 0 0 0 0 0
-13 -4 51 11 -10 4 13 11 -5 -10 -7 -6 4 4 6 -20 -8 17 -21 -13 43 -9 -24 4 -39 4 -17 11 0 12 -9 10 5 -5 7 -12 -5 13 -25 -10 -1 25 -2 37 -3 6 -3 -3 -13 -5 -7 0 1 12 7 7 1 -24 -9 -9 -11 0 3 -24 5 10 9 10 20 16 12 -4 13 -4 -41 -14 -33 -24 8 -35 -2 1 6 -19 3 22 -4 36 20 -6 26 -34 13 -17 8 29 2 16 22 -8 -8 -8 21 6 5 2 9 -23 -24 -13 -3 -16 -2 15 10 -22 14 2 -16 23 -15 -11 5 -1 -4 11 3 7 0 0 0 0 0 0 0 0 0 0 0 0
-23 -15 9 -1 -27 -15 -7 14 -7 -1 -16 -7 -18 8 5 23 6 -26 17 19 2 5 6 13 -7 -1 3 -5 -1 13 9 -7 22 -8 -5 -5 8 -19 -23 6 -6 -6 1 -15 -1 -14 4 25 -4 3 19 -46 28 1 -20 -3 -18 12 -18 9 -7 0 10 -21 -2 -14 -1 -2 -22 -10 2 -4 -17 -3 -14 -4 -7 -1 -7 -23 -18 3 3 -8 12 -5 13 5 2 7 22 -24 15 2 2 2 62 14 -18 -5 -12 -20 -16 -3 -1 -45 7 20 12 4 9 20 13 14 -19 -9 0 -15 4 -15 -8 -22 5 -15 -11 -7 5 0 0 0 0 0 0 0 0 0 0 0 0 0
7 2 -7 7 -3 -7 2 4 -4 -11 11 5 -10 2 -2 10 -16 -7 -29 50 -15 -8 -18 14 2 45 8 8 3 7 7 -15 23 11 -35 7 10 -8 -16 4 -10 -17 -8 -26 -2 -13 6 22 5 5 31 33 -10 11 4 2 -13 3 -4 -17 -21 -8 -19 -13 6 5 0 -22 0 -14 3 7 24 12 -2 0 14 -13 6 7 -9 6 -18 -12 -29 -6 -10 13 -23 3 -3 6 -4 -6 0 13 -17 15 -3 7 -2 -3 -5 -11 -9 -18 -25 -9 -13 -6 2 -6 1 -6 3 8 7 14 -7 26 18 -15 6 14 -9 -3 3 5 0 0 0 0 0 0 0 0 0 0 0 0
2 -17 -16 9 -4 -11 5 3 -5 -13 -17 0 0 -6 -1 -5 -34 13 -6 4 13 -5 -7 -7 -2 -19 -2 -11 4 17 7 -21 -1 -5 -2 -8 21 5 -17 -13 6 -42 0 -25 6 1 -7 -3 15 12 12 13 8 -2 0 -14 -10 -17 43 18 7 0 13 5 -4 -38 6 -6 12 -5 -14 1 17 20 -33 17 -5 -1 -3 5 -19 -4 -26 -23 -22 -11 18 -3 5 -15 6 15 29 -14 0 -7 -3 7 -22 -13 -11 -9 11 -3 6 5 -13 -6 -5 -2 -5 -17 13 10 -5 -1 10 15 -10 11 -10 -7 12 -10 18 4 -25 -4 0 0 0 0 0 0 0 0 0 0 0 0
-1 -8 -1 11 -6 8 -24 2 13 -33 12 -3 -5 -11 -28 7 -2 4 -6 -8 -13 -15 30 17 -12 -7 -12 -18 7 1 -8 25 -22 -23 -7 13 -32 1 -16 1 3 -10 6 7 -17 26 24 8 -4 -8 34 -14 9 -20 29 -8 -19 4 13 11 -2 -22 9 14 14 -31 14 3 17 -15 -8 13 18 4 5 11 -20 10 -6 12 7 -28 43 3 5 -10 -1 -6 12 -5 11 7 2 2 21 -8 -9 -6 16 10 10 -5 -2 12 -37 -32 -13 3 -34 31 7 -19 29 14 -16 21 -11 -12 -26 23 -4 -7 13 -36 -8 -16 12 -11 0 0 0 0 0 0 0 0 0 0 0 0
-1 16 -8 -2 6 28 -19 -16 -2 6 21 -15 12 -3 -18 -13 18 10 5 -1 -13 2 21 -14 21 -4 10 -15 -22 -4 26 -10 9 -2 42 15 22 4 -18 4 -18 11 0 16 -10 4 11 30 11 24 -20 -13 2 6 -38 25 -2 8 -20 24 -12 32 18 -4 -12 5 17 25 10 16 30 25 -6 13 -11 -20 40 -12 -10 -14 16 -25 -12 1 -7 3 -9 9 14 -32 24 36 -11 23 -18 -17 23 12 -18 -6 -12 -31 -11 -11 7 -6 -5 31 18 4 15 3 10 -1 -14 6 22 7 -15 -36 52 -14 -13 -5 -5 15 19 -21 0 0 0 0 0 0 0 0 0 0 0 0
-5 18 -8 3 -8 3 43 -10 -16 -15 8 -7 -3 -6 28 -24 3 50 34 -6 5 -7 -4 -5 1 -11 -6 -11 4 22 -1 15 -31 -9 -6 14 -3 -18 -18 9 -6 18 29 1 -1 2 -2 -24 26 3 -27 8 0 -14 0 17 0 -16 7 4 -2 -18 10 -10 -18 10 14 -6 -12 -7 0 2 -31 -6 16 3 -19 -1 -22 -17 -15 -10 -22 5 -2 -3 -5 -7 5 11 6 -2 24 8 -10 11 -2 2 1 -7 4 21 -26 12 7 -9 -6 -9 -11 -18 -18 2 -4 -5 -7 -24 8 -15 9 15 -8 3 2 21 -12 -19 -25 9 0 0 0 0 0 0 0 0 0 0 0 0
-6 28 5 -8 -6 -28 -1 -21 -3 -3 26 -13 -21 2 -12 -19 -3 6 -2 -30 10 26 -21 2 -12 22 5 -24 -12 1 8 -14 14 -15 10 -3 -26 -2 -9 -17 -3 -10 -2 -2 5 0 39 -8 -3 -13 7 3 29 7 24 -11 -4 -26 13 -2 7 1 8 5 21 3 0 -15 -4 24 10 10 -12 12 10 -4 -28 -14 -16 8 -34 -9 6 -20 1 -3 -17 -21 -4 17 16 -25 -15 17 27 -4 -6 18 -9 35 37 -30 5 9 2 8 12 0 -8 0 38 7 -7 5 -15 -11 8 6 11 25 -19 -16 8 27 -17 -7 3 8 0 0 0 0 0 0 0 0 0 0 0 0
-22 -16 -27 -1 36 -27 -18 -39 -24 2 -24 -6 -16 8 -18 -29 7 16 10 -24 -7 19 -2 6 5 -8 -11 14 -48 -31 14 -79 18 -9 -17 -12 7 -10 -2 4 -39 -49 -2 25 -12 1 -40 -25 7 -3 -20 -34 11 4 -19 16 -33 51 14 -25 3 -1 -2 -3 31 25 11 6 8 -33 -22 16 5 21 -8 9 -4 2 -14 -20 -1 11 -29 -2 16 -10 -16 -24 -10 -5 8 -7 -3 -11 0 -31 -8 0 -14 -4 26 -3 -9 24 4 -31 -14 47 -32 -6 12 29 -9 -11 -36 2 -6 18 -7 15 6 2 15 -15 -11 6 -31 -5 0 0 0 0 0 0 0 0 0 0 0 0
7 10 -25 2 -29 -31 2 -13 -33 18 15 2 6 14 6 -24 -21 12 -9 36 1 -1 -18 -1 8 3 4 -14 13 -15 19 -4 -8 -12 -23 48 -9 -11 15 -19 0 -11 38 17 -8 0 -15 -22 -23 14 -23 8 16 9 14 11 -25 -39 -7 -11 8 -2 -6 15 -12 -2 -4 -23 -13 11 1 -2 -16 -7 -32 -4 -43 -11 -15 24 -21 -24 14 0 0 21 -10 14 7 -6 26 10 -17 2 23 8 -2 8 6 9 3 -4 23 6 9 20 -10 -22 5 3 21 -6 11 13 20 30 9 -14 -14 -8 -50 -11 -8 -6 -9 -12 14 -11 0 0 0 0 0 0 0 0 0 0 0 0
-16 31 13 24 -17 12 -8 -19 -25 -1 20 17 6 7 -6 -57 5 3 6 3 31 -9 -20 -1 3 -15 2 6 -30 -5 32 3 -13 -50 28 8 -26 16 30 -11 0 9 -8 -9 -8 16 -21 23 -9 -14 20 17 -11 -2 -20 -4 -1 -22 11 15 -24 -14 16 2 5 -2 7 -13 -30 -12 5 6 29 3 17 16 4 -7 38 -12 8 1 -1 -1 -1 7 -13 -17 11 -3 -33 3 -6 11 13 -2 -24 12 1 -5 -12 13 -4 -20 -9 -13 19 -4 -21 -2 -2 14 -11 13 5 -11 -11 -3 -4 43 17 -6 21 12 -16 5 -4 5 0 0 0 0 0 0 0 0 0 0 0 0
-16 5 -7 2 15 6 1 -2 -7 -2 11 9 -3 -31 0 12 -21 2 12 -18 7 8 -32 17 -37 -3 5 6 -4 8 -5 -40 14 -4 32 14 -25 -18 -24 -24 24 -12 -16 -21 7 -5 -3 7 -1 -11 9 14 12 -15 -12 -7 22 -6 8 -17 -1 -23 5 -27 -37 -24 -4 41 -47 -6 26 -22 16 -4 15 -21 3 -3 20 13 8 -31 3 -37 -8 6 -23 -1 2 -9 -28 36 -17 10 -3 19 35 2 -27 -13 -2 6 -2 -17 4 -27 16 4 7 -1 23 -7 2 9 -14 11 -28 -16 11 11 -24 0 -10 -11 -19 3 -1 11 0 0 0 0 0 0 0 0 0 0 0 0
24 5 16 -10 -1 -3 2 -1 -1 24 40 -18 10 -15 13 -8 -39 10 -20 -38 4 -4 -19 -17 -20 -15 -11 -26 -18 -12 -18 2 21 -6 -5 -13 -14 3 29 -11 -1 -29 26 -36 26 -3 1 -14 15 -6 1 28 -4 -7 8 -15 9 -1 -3 -13 3 -10 28 15 9 15 -5 -12 -27 1 17 -7 -19 1 -19 2 0 -7 2 7 -23 -38 37 -8 -15 1 19 -23 2 1 -41 31 -2 35 19 -12 20 0 -2 23 23 -25 3 -2 -7 2 3 -7 5 -12 40 -19 -24 6 -14 1 -18 -3 -12 -1 -21 -1 -4 0 2 17 3 5 0 0 0 0 0 0 0 0 0 0 0 0
-11 19 -17 -2 15 -9 -16 -3 7 15 -14 10 -1 -17 -16 43 9 -4 8 18 -4 9 18 5 -7 13 10 7 -15 12 22 -18 -6 -21 -1 11 2 -2 -21 18 2 1 -3 16 0 -35 -5 10 4 4 24 7 -19 -6 14 -13 -2 -13 10 3 -7 -6 8 -13 12 -10 0 3 -3 5 -34 -4 3 10 8 -4 13 -1 -15 -33 8 10 -5 -27 16 -23 13 3 -2 -2 -37 -19 -5 3 -22 3 3 1 -24 -5 17 10 -6 17 -1 -11 -6 -6 -14 5 14 -31 -10 -18 17 -4 4 4 -16 -1 -16 4 -16 -37 1 -22 9 -30 0 0 0 0 0 0 0 0 0 0 0 0
20 3 -37 -7 -44 14 12 -9 10 40 -7 9 -16 -13 -23 2 11 2 1 5 -26 -14 -1 11 -8 -8 -10 -16 -13 -30 -4 -8 11 -3 -21 6 -38 45 18 -13 -12 -15 -23 -8 -14 -8 -65 -13 0 -6 -8 -2 -25 21 13 -25 -31 -30 -15 9 31 -1 10 8 15 24 -6 -27 -25 79 16 8 10 -29 -13 18 14 17 -9 -3 5 -2 12 0 24 -40 -4 -15 -30 15 -9 -19 35 -6 5 14 -18 -43 -4 -2 9 34 37 -14 -2 21 -19 -15 -11 12 69 16 17 15 -9 8 11 -16 14 -14 -11 -23 -25 -16 4 14 17 -24 0 0 0 0 0 0 0 0 0 0 0 0
0 -21 7 29 25 25 -3 4 -4 -11 7 7 -1 -8 1 12 -44 0 22 -6 7 23 -2 14 -26 -9 -4 3 24 -2 -12 -6 -20 55 14 4 40 7 -2 -21 -10 3 -5 -15 -19 -28 8 -13 -1 19 -2 -16 -14 8 -13 10 19 -7 38 -4 -18 -3 13 -16 -29 4 4 4 2 3 -27 -11 -20 -3 10 3 3 -14 6 -10 -6 24 -18 22 -15 8 9 2 -13 -2 13 -7 -4 0 19 11 21 23 -16 -43 -1 30 -13 -13 8 -15 7 19 8 42 -15 -9 26 15 23 12 -28 7 11 -3 15 15 7 4 -10 -2 7 10 0 0 0 0 0 0 0 0 0 0 0 0
-24 4 -9 10 -24 -25 9 18 11 3 4 18 -15 2 -21 20 16 9 -6 -3 -8 -5 3 18 -8 -18 -19 -13 -15 10 22 -8 1 -29 8 16 -22 -25 -33 -13 -24 40 -24 8 -37 -15 -7 15 -18 1 -16 -14 -10 -28 -10 14 32 -30 -4 -25 33 -6 -8 28 -14 -3 40 14 4 -8 5 35 12 8 20 -15 19 11 9 -23 -12 -2 -19 4 -19 4 2 18 -21 -14 -15 -7 -9 1 7 -2 5 9 1 -8 18 2 4 0 -14 -18 -14 -9 26 -2 22 -10 -3 1 -4 -1 -16 -17 -11 18 -2 -18 21 1 -20 7 -9 -20 0 0 0 0 0 0 0 0 0 0 0 0
7 6 13 9 11 -13 -16 8 -2 13 15 0 0 37 -3 -6 24 -11 9 -15 22 0 15 12 16 26 9 4 -11 -3 -5 -6 -17 -2 -24 -14 -7 7 1 17 -11 -1 23 -2 -14 -13 9 -5 -5 5 11 6 5 37 9 -27 8 9 -1 -1 9 -38 -11 -4 3 9 3 -23 2 1 16 9 -21 5 19 -20 12 -24 4 8 1 0 -23 14 2 10 9 -17 2 15 14 -2 8 15 -12 -5 11 12 9 38 20 -2 11 -3 -18 2 -12 -17 2 -1 0 16 -5 -19 -35 -14 7 2 -10 -21 15 17 10 -7 2 36 4 -12 0 0 0 0 0 0 0 0 0 0 0 0
5 -7 -16 -6 1 -13 -6 10 -18 -16 1 -38 -2 8 4 -3 -4 0 -36 8 7 24 10 7 22 -39 -7 -12 -11 -3 36 20 -7 1 -1 -10 12 -27 -9 1 33 15 18 -20 -33 -10 -30 -14 42 -7 -21 23 9 1 23 -12 -23 -14 4 -32 20 -1 6 -4 -3 -9 -6 17 -26 -25 6 -5 11 -6 24 9 -29 6 18 -5 -22 -19 -28 16 -12 20 -25 20 32 -17 13 -15 -10 -22 16 -7 -13 20 3 -35 9 7 4 6 20 -23 -10 -41 -32 -7 6 23 -16 10 -16 7 14 -7 -20 -3 -13 -3 1 11 -31 -30 10 2 0 0 0 0 0 0 0 0 0 0 0 0
-23 -11 9 -10 3 5 13 2 -5 16 -8 -5 24 4 -4 -14 2 2 -21 -1 -12 8 17 -3 0 -6 17 1 5 10 14 10 9 -11 3 13 13 -6 -5 -22 -6 12 -2 -19 -6 -13 17 8 5 7 -6 -15 0 1 -24 -15 16 -18 -18 7 -9 8 9 0 2 -1 -42 14 4 3 -1 24 14 -7 -14 8 -23 4 -17 3 3 -21 -2 -45 7 -24 -5 -11 -11 -15 -3 -22 0 -5 16 14 -13 11 -2 6 3 11 9 -10 27 -1 3 -1 7 1 15 -16 0 32 9 12 -5 38 -5 22 -14 35 -23 8 25 3 0 11 0 0 0 0 0 0 0 0 0 0 0 0
-8 -11 -16 -28 20 -16 30 -7 -29 30 -32 3 -15 -42 -8 -2 -7 -10 -24 -26 -11 -14 -29 13 -10 13 -15 -28 -7 -10 15 45 20 -6 -22 -30 -28 -10 13 -8 22 6 40 -17 1 7 17 -1 -37 35 -10 -19 -15 -28 -3 12 13 33 -21 2 -6 -20 10 8 17 -35 6 -19 15 32 4 4 23 -2 26 -19 -27 12 -19 27 -1 -62 43 1 15 11 -21 -26 -16 3 -31 -4 -18 -8 -13 6 -13 -23 -15 18 5 2 -16 32 3 -7 -21 -18 -3 18 6 16 -17 1 4 -10 -16 -15 24 23 -23 -4 -1 -1 4 -13 -2 2 0 0 0 0 0 0 0 0 0 0 0 0
12 -35 9 -6 -4 -5 17 4 -23 0 -10 -16 -8 -2 -15 1 -23 -12 -19 -15 -5 8 -11 -14 12 -25 -5 9 5 -7 -40 0 -21 39 -4 16 29 -17 0 -3 -36 44 4 -27 -2 -1 9 -2 -6 -11 -24 1 18 -13 0 -5 9 -31 11 -24 -3 -2 -6 -31 4 11 30 13 0 -1 9 9 -4 -15 -5 0 3 -5 -26 -26 -23 28 -17 0 -28 -2 36 2 17 14 -20 -21 -6 -26 25 0 34 -8 -18 2 -4 -4 -19 -3 -4 -1 2 -11 -19 -28 -9 -8 -29 5 -23 14 -9 -7 -18 15 16 -20 -5 -6 -20 4 8 -30 0 0 0 0 0 0 0 0 0 0 0 0
-38 -1 18 -9 -20 14 17 -15 14 -33 17 -10 4 10 -18 -1 6 2 13 -7 17 -25 5 27 -7 18 12 -3 -4 1 15 -9 12 8 -20 17 -10 -1 52 -29 13 -10 9 14 -3 2 -24 -6 46 -20 -2 7 7 32 27 17 0 -9 10 -22 -24 10 8 -38 -19 -10 -5 -16 25 15 -8 -5 -7 15 0 -6 -9 22 -4 -3 22 3 -34 -5 -9 -7 -1 20 -32 0 24 13 -24 0 -16 -9 7 -10 6 11 6 -26 9 10 7 -24 2 12 -4 -16 -20 9 -6 25 -6 -11 -51 -16 0 10 -8 -8 -7 14 -17 -2 -14 10 0 0 0 0 0 0 0 0 0 0 0 0
1 -2 -20 19 9 -1 12 -4 -7 -3 0 -6 3 -8 2 14 -3 -25 12 -11 19 -29 -3 4 7 -19 19 9 -11 14 11 -12 -20 4 15 -6 -21 -37 -4 -7 -47 6 13 21 -15 22 -3 27 7 -1 22 -2 5 3 -6 -22 1 -5 -24 8 6 15 -2 -16 6 -10 7 -3 3 -14 -2 10 -13 26 6 -19 -16 12 -13 -8 -38 -7 3 -21 7 -22 -4 -1 5 4 -11 -8 -15 8 33 10 -15 -6 -29 -2 0 -9 -16 0 6 5 20 -20 43 -10 4 -6 -4 14 13 1 14 10 -22 14 8 -5 0 13 14 -27 0 2 0 0 0 0 0 0 0 0 0 0 0 0
-20 3 31 -7 8 -13 9 -2 10 11 -4 11 -6 -15 8 -22 -3 -2 -6 -8 2 -12 1 21 -1 3 -12 0 3 -3 -39 13 12 6 10 3 -14 4 15 -10 -29 -3 -12 -25 -25 11 17 3 -2 12 -26 28 -17 4 -13 10 -3 -15 8 1 -22 -2 27 9 22 10 10 -17 14 -9 12 -25 -4 15 29 -6 2 5 7 -1 8 8 -21 11 -15 -17 28 0 -18 -21 -14 -6 -23 1 -8 3 -22 -5 7 -16 14 18 -27 -18 -15 -3 -10 12 -10 3 -4 -2 13 -16 -9 8 13 -3 -17 -8 11 0 -2 16 8 2 5 7 0 0 0 0 0 0 0 0 0 0 0 0
15 -6 13 0 -16 4 -14 -12 14 -41 15 -17 -6 -2 8 -15 5 2 1 6 34 13 7 15 -24 13 -18 -29 14 6 -7 8 -3 2 -16 -5 -14 -20 9 -7 7 3 2 18 -42 -15 -4 -10 12 17 -23 -17 -6 9 -5 -19 15 -16 16 -10 -7 -2 -1 0 -26 -33 6 -35 -8 -1 0 -41 2 -14 9 10 -29 13 -7 -3 -2 -16 -1 13 -11 -18 -8 0 6 -24 11 -8 6 2 3 10 -12 -9 -6 -13 29 -20 -3 -31 3 0 -17 -19 -5 9 -9 11 9 8 -4 -10 -11 -8 -10 -3 -12 -7 6 8 9 1 2 3 0 0 0 0 0 0 0 0 0 0 0 0
6 81 3 -3 9 35 13 -8 -1 -2 56 8 -27 -13 -1 -13 -16 -7 -24 -1 11 8 -7 -21 8 18 -12 -12 -25 3 -13 -13 4 7 0 2 0 -11 -6 -10 -9 -4 -10 -21 -25 -2 -7 12 -20 -16 -21 -41 -6 -14 -10 -12 2 0 4 -25 -10 -11 10 -4 -13 -3 27 -6 -5 -2 21 -4 -97 15 3 -15 -25 -3 5 5 15 10 8 7 7 -18 23 -8 -14 15 1 26 -11 102 11 -15 -13 -8 -18 -11 7 21 -34 7 -11 -45 -18 -3 5 -14 20 1 0 7 15 17 5 -6 18 -13 -21 -17 0 16 -8 0 -7 -2 0 0 0 0 0 0 0 0 0 0 0 0
17 -2 -12 8 -1 10 21 2 0 0 6 -27 -3 -11 17 -23 2 22 22 -9 7 -2 1 3 10 13 8 -5 -3 -17 -27 -1 -17 13 -8 -5 -13 -4 -5 -26 10 -7 30 17 -16 -6 6 11 -7 33 -14 -7 1 -30 -28 -13 1 -6 -5 -5 -18 -44 -13 4 25 -3 7 -14 1 -16 12 2 4 -27 8 4 -8 26 1 -14 -22 -9 -27 -11 -17 -3 2 -3 5 -7 -11 -5 22 -1 -4 17 -9 13 -1 -7 3 -37 23 -9 -10 -19 2 -25 -27 -1 -11 16 10 -2 5 6 -8 0 -8 -10 -39 -9 -20 -3 -12 5 10 8 0 0 0 0 0 0 0 0 0 0 0 0
-29 -16 0 -7 8 3 -10 -20 -20 -18 5 -6 12 -5 24 -13 15 5 -4 1 25 23 1 12 -17 -10 -6 -18 -5 0 -16 -24 -10 -12 5 -13 -15 2 -5 16 -7 -11 13 5 13 -16 -7 -3 59 2 -9 17 -2 -17 -35 -8 -14 7 7 -17 9 -20 -11 -6 -23 10 35 6 -16 8 8 1 0 5 -3 -13 1 -4 -29 -8 -8 -12 -5 3 -9 16 6 7 17 -15 -9 13 -1 -3 -5 -8 -7 12 -25 -15 14 -19 1 5 1 -1 -2 -19 1 17 1 2 -3 -19 14 -3 -9 -16 -4 -28 2 -15 -19 3 -8 19 7 -17 0 0 0 0 0 0 0 0 0 0 0 0
15 -10 9 -14 7 5 -3 7 4 -3 -11 22 7 2 -20 -3 35 26 -15 -7 6 -15 -7 -11 -7 -9 -7 1 14 2 -18 11 19 7 4 7 -15 15 -9 -16 16 9 7 -11 -18 6 9 -16 8 -1 7 11 30 6 -22 1 -10 -17 19 -4 -17 -3 9 -4 -18 -10 -17 6 -19 -26 -10 -3 -10 -1 -25 -11 12 0 8 -16 1 -7 -8 6 -15 9 -2 5 17 -27 -9 -9 74 -9 -2 -17 2 4 -5 3 12 -2 4 12 -10 -2 -16 -24 -20 -4 9 -11 -20 17 9 -4 15 6 -11 1 -21 -21 -4 13 1 20 23 -20 0 0 0 0 0 0 0 0 0 0 0 0
-7 -4 10 -10 2 -2 9 14 -15 14 7 5 23 0 5 10 -3 12 -4 -5 3 -3 -9 -7 3 -13 1 -11 -6 4 -5 -6 12 -12 -13 7 -4 -12 -1 -6 -19 -1 -5 -10 -9 -22 3 21 10 16 6 -6 -6 -15 11 2 -21 -5 -13 11 8 -11 7 -2 2 20 -9 -7 -4 -4 -2 -5 -12 4 0 10 2 2 -4 -16 -2 -4 9 -23 23 -19 -10 6 6 -17 23 23 -5 5 -10 0 5 11 2 7 -16 4 -19 -17 21 -13 -2 -6 -13 18 -16 25 5 11 14 4 -8 6 -8 -14 -17 -3 26 4 27 10 9 -8 0 0 0 0 0 0 0 0 0 0 0 0
25 18 -35 -15 10 0 4 -15 26 18 1 3 -10 -36 25 -26 -14 8 -13 -25 -6 -3 16 -8 22 21 -40 -14 2 -15 10 -13 -17 -16 -14 13 -24 18 -17 -5 -7 -12 -2 21 11 49 -2 -5 9 9 16 14 -5 1 11 4 -16 -1 -5 4 2 5 -17 32 -7 0 -6 -21 11 13 0 -24 -5 -10 12 -14 -14 17 -25 27 6 -15 3 -13 -8 -2 -2 -21 -8 -28 -15 -16 18 16 31 -37 23 -8 -8 -13 21 75 11 -3 -15 7 21 -10 -11 -13 -26 -13 2 2 -13 6 22 -9 -13 -14 4 -12 -4 14 -7 11 -21 0 0 0 0 0 0 0 0 0 0 0 0 0
2 -23 -24 4 2 21 -2 -6 -7 -8 -17 -12 12 -5 -15 -24 10 -8 -10 -13 1 11 -13 -5 -27 22 6 -6 1 -14 -1 3 -8 -5 0 4 11 -4 2 1 -2 10 5 -12 20 -1 -7 -7 -1 -19 -9 -2 14 -20 -16 13 -3 6 11 -3 5 -9 2 11 0 -13 -15 -4 0 -9 13 8 16 8 -9 4 -3 10 -8 -11 11 -5 -21 7 1 5 14 4 17 -24 -4 -17 7 -7 -4 14 5 -3 -17 2 -13 24 -3 3 5 -5 -9 -3 9 12 -1 37 -1 -5 -23 12 -23 -12 7 -1 -25 -19 -9 9 -15 -4 15 -43 0 0 0 0 0 0 0 0 0 0 0 0
-7 -34 -29 -29 14 -1 -6 2 -10 4 7 14 -5 4 -25 13 -12 17 42 -7 -5 -9 32 -3 5 -2 5 -1 -1 14 17 -18 -18 -16 7 -10 1 7 -6 -24 -17 29 -18 -15 30 -12 12 -2 3 -9 -13 -9 5 -30 15 8 -1 4 7 -20 5 -20 -4 -16 -3 -15 -6 17 -5 0 -44 15 -15 19 -5 -9 27 -14 -22 -13 -21 -14 -4 -55 17 -13 -13 -9 -13 16 -3 -8 4 -13 -8 3 -3 -8 9 -1 -23 -11 -19 5 -7 14 -11 -13 6 15 -10 -8 -1 20 9 7 16 -7 -11 14 -1 18 -5 5 -4 -25 3 -7 0 0 0 0 0 0 0 0 0 0 0 0
11 -9 9 -25 -63 21 -5 -10 18 -14 1 24 -13 42 12 -20 12 0 21 26 -23 21 34 12 -1 10 -16 -35 -22 -8 -22 -23 -1 42 -8 5 61 -12 12 0 -62 14 -5 -7 21 -39 3 13 22 -32 -17 51 -20 -43 -17 -2 26 -24 38 28 -31 -12 4 -36 8 -16 -11 -11 -3 -6 -8 -1 -33 -7 -32 -1 -1 -5 -7 12 3 8 -45 -30 -26 -4 10 -2 14 11 15 -21 32 0 25 -5 -120 21 3 50 15 -12 2 26 2 6 5 -10 1 -38 -11 47 5 20 -13 20 9 12 -8 1 17 3 -27 -9 2 16 -14 2 0 0 0 0 0 0 0 0 0 0 0 0
-8 13 -29 -5 10 -15 16 -26 21 -13 -21 -25 0 -1 -16 38 -5 -21 2 -8 -5 -5 -1 41 7 -11 33 -2 1 50 -4 -10 -13 -4 -31 -4 -42 -37 -38 6 -25 -14 -4 27 23 -30 -19 15 -2 -19 -9 -3 -8 8 -16 -9 2 -4 17 -27 -13 8 3 -31 -16 -22 1 -36 -25 -11 -5 -1 17 -33 -3 -11 -23 -18 15 -14 -23 -19 -23 -6 24 0 5 14 11 18 0 2 -36 -7 -5 -15 -2 20 -4 -5 12 -14 -11 24 6 -45 -12 -24 25 11 7 18 -5 6 23 -15 11 -36 -10 11 -20 -8 38 -26 -6 -2 -4 -13 0 0 0 0 0 0 0 0 0 0 0 0
-18 -34 9 31 0 12 -9 0 -1 3 -20 -4 -6 -2 -5 -3 2 -24 -3 -19 -2 39 16 -14 6 7 -16 -5 18 4 18 8 -15 -11 8 6 19 -44 -9 -1 19 25 -7 -20 5 -17 8 -23 16 7 14 -29 -6 4 1 -4 2 -11 -6 -18 0 38 -22 -6 -13 11 -3 -8 1 -10 13 -19 17 -22 -35 -16 -1 1 -3 -26 33 -7 -19 18 8 13 -13 14 -7 33 7 -6 -15 -17 8 -5 14 -6 3 -10 -27 -4 -13 -8 3 7 -12 14 -10 11 -22 22 54 -9 7 5 13 8 15 -26 -2 -20 12 5 -9 -7 -10 -15 0 0 0 0 0 0 0 0 0 0 0 0
8 -6 7 -9 -10 16 12 48 8 -19 -1 -7 -21 -6 35 -17 -13 102 7 -2 -19 4 8 3 -25 -4 7 -21 -36 1 -4 0 6 4 -9 -15 10 7 -22 4 0 -3 5 6 -8 35 -21 0 -14 2 -15 7 24 12 -13 -17 -10 16 -3 18 0 4 16 -29 -41 -12 -20 -17 15 -3 -1 13 -1 5 -14 1 -20 -9 4 14 -1 -9 -8 -8 11 -30 0 3 57 0 -6 -1 29 -6 -17 -16 3 -24 10 14 -19 8 -29 -12 7 -16 21 -25 18 2 -4 10 -11 16 0 -1 27 -5 20 -13 2 -4 -6 16 -7 17 7 21 0 0 0 0 0 0 0 0 0 0 0 0
-33 -29 4 -6 -12 11 -17 -7 -14 9 -8 -13 0 -12 -9 32 -17 -6 21 22 -37 -1 9 -18 6 9 22 4 32 12 1 -22 -2 -20 3 24 0 -2 -20 -19 12 -29 -27 30 -13 -14 -21 -1 15 -9 -8 14 13 18 14 21 15 25 39 -17 17 -7 -1 -28 20 0 -38 32 -6 -39 3 -4 -1 -27 3 9 -12 -31 -24 -1 12 3 -18 -10 -3 8 3 12 23 3 17 8 -9 -9 4 2 -54 -15 6 -4 -16 -22 -22 -8 -19 -6 -4 -18 30 -10 6 -13 -9 17 0 9 -15 6 7 -21 -12 -8 9 -3 4 -8 -1 3 0 0 0 0 0 0 0 0 0 0 0 0
-5 -5 15 11 26 30 4 21 -17 -29 -31 41 -3 19 23 -1 -5 -7 6 -6 -4 23 28 0 -11 -39 3 -35 9 -17 29 23 13 -14 -13 4 -1 -18 4 -4 0 -4 12 -2 -4 1 7 -10 -11 0 19 -27 -10 4 -29 -41 -1 0 1 28 -14 -15 -22 41 17 -4 10 -21 15 9 -8 -31 -10 -21 -19 13 -21 19 23 16 14 -14 17 7 8 11 -39 -7 -4 24 3 -4 13 18 -19 -9 6 3 -21 15 -15 4 18 -37 12 40 7 16 -19 -18 -3 26 1 13 -9 2 -2 -12 12 59 5 11 21 11 -6 13 0 -17 0 0 0 0 0 0 0 0 0 0 0 0
16 10 15 18 -21 20 1 -17 7 1 5 3 -2 13 2 -2 28 -4 -18 -22 13 -7 1 -8 3 -11 -1 6 15 3 -3 -9 -10 -10 1 21 -2 35 -18 -13 17 -35 -6 -8 -9 27 32 -45 -5 -4 12 -15 13 2 3 15 -38 13 8 -2 -4 -6 4 -3 -9 3 -10 -16 11 10 -9 24 -1 -32 6 -15 6 -25 28 -5 6 25 8 -2 -17 0 8 -9 -21 15 12 12 2 4 1 -13 -19 22 16 9 8 -4 1 -24 -14 10 49 15 2 2 -1 -11 10 6 8 37 15 8 -8 -4 -14 -14 14 16 -20 -24 -10 -9 0 0 0 0 0 0 0 0 0 0 0 0
-8 18 19 -15 9 -10 5 29 -12 6 -1 2 14 2 -16 24 -4 11 24 27 -8 20 -6 8 -3 -12 0 -8 -2 -6 11 -9 15 -3 -25 4 -22 -9 7 -8 -16 -7 -16 -1 -21 -8 -5 3 -7 -5 -16 -7 -13 0 -1 -11 27 -5 19 -2 -2 -5 3 0 -10 24 6 -3 -18 -4 -14 19 4 9 7 0 28 -2 4 -5 -11 20 0 -65 34 -3 -1 14 -15 -4 8 -11 5 2 -16 -7 -8 -14 11 4 -3 16 5 -2 3 2 -10 -11 -18 3 -8 15 -20 19 10 -7 0 10 -3 -2 -15 21 4 19 13 -2 -22 0 0 0 0 0 0 0 0 0 0 0 0 0
-5 -12 8 -1 -13 15 -2 30 34 29 -10 -22 -1 3 -24 -10 -14 -1 9 3 5 -10 -17 6 4 -2 5 17 10 -16 -13 -3 10 -4 5 20 -14 -4 -19 1 -13 -2 -11 -11 -2 -2 21 -3 5 41 -9 8 -10 -26 -8 4 -25 -22 -8 24 9 0 2 -16 20 -5 1 -1 -13 2 -1 -6 -5 -17 -8 7 -2 1 0 -8 -4 -11 4 -19 14 21 11 -4 3 -13 -10 -4 -8 -4 -7 29 9 12 -1 12 1 7 -8 -30 -2 -5 -3 3 -17 -7 -2 0 0 1 3 -3 21 -3 6 -2 3 -8 -23 20 -11 -3 15 20 0 0 0 0 0 0 0 0 0 0 0 0
-2 -7 16 4 4 -8 -13 -30 18 -6 7 -3 -8 0 -3 10 8 11 -25 -17 -25 -3 -5 16 31 26 38 -10 19 -30 6 -33 21 -3 -14 -4 -10 5 14 -33 -9 -15 21 3 11 -10 15 -15 -2 11 -1 -7 -9 -38 -7 6 -28 23 -21 23 -20 11 6 1 5 18 7 -11 -7 -20 -3 -4 -9 -30 -19 -20 -14 -1 -1 4 -14 18 9 9 17 -22 -16 -1 -2 -8 12 -6 37 4 -16 23 8 -19 4 -27 -11 -7 39 -13 -15 1 4 -6 4 -7 -26 -25 -25 19 -19 31 2 -2 -20 12 -12 2 -22 36 1 7 6 -8 0 0 0 0 0 0 0 0 0 0 0 0
11 33 -19 -6 -1 -23 14 33 -12 -7 -16 0 -2 4 0 -7 14 -6 -13 -17 4 -20 -10 1 23 1 -11 23 -4 16 17 -2 15 1 -4 0 12 -2 -19 -13 -24 -12 -9 -11 -19 27 -15 15 -9 10 16 -4 -21 6 -7 -2 10 15 20 18 -28 11 15 -12 3 -6 2 42 7 -5 -6 -11 10 -1 -27 10 -6 18 18 13 8 4 -28 11 -21 14 6 -5 -7 -7 -18 0 -1 6 11 6 -26 -19 -30 14 5 10 -57 -11 1 -7 27 32 2 -7 34 0 -30 15 9 -14 -4 -2 -13 -6 4 -4 20 17 15 5 -4 5 0 0 0 0 0 0 0 0 0 0 0 0
-15 2 27 11 -8 -13 11 -8 10 2 -3 -8 17 2 16 -11 2 3 4 3 8 2 -5 -16 3 16 -28 -22 -4 2 -13 16 4 6 -1 2 15 -12 11 -12 -13 5 -8 1 5 -15 0 5 5 -19 18 5 3 -6 0 9 0 -14 -8 33 17 -9 3 3 -3 -2 -12 15 -6 -11 -10 0 7 -30 25 -3 -12 -3 -9 -3 4 -2 2 -59 13 7 4 -3 14 -14 6 5 3 0 -15 -8 10 17 -8 2 5 6 0 11 13 -11 -4 -7 7 17 10 -16 -9 22 -7 -5 -1 19 21 -17 -14 7 16 -6 21 -1 -3 -4 0 0 0 0 0 0 0 0 0 0 0 0
25 23 4 13 2 -26 -36 1 4 -51 1 -14 3 -18 28 6 -29 31 -15 0 45 -16 6 -12 -29 -16 -46 -8 14 -22 17 -13 5 3 0 24 -3 0 18 -24 -7 -8 2 12 -14 -13 18 -22 39 5 -12 -23 9 10 31 23 -14 -1 -11 1 3 -4 2 11 17 25 -6 -19 25 -9 7 3 -14 0 11 32 -9 -16 -10 -13 8 -14 -7 -11 0 19 -1 1 -17 13 -7 9 -35 11 -2 81 -3 -15 5 6 24 17 4 13 5 23 14 26 -16 -8 13 34 10 7 29 14 33 3 -21 27 5 0 -8 -8 -4 -9 -46 17 0 0 0 0 0 0 0 0 0 0 0 0
24 -31 -22 14 4 44 10 -20 -6 18 -29 5 0 -16 -9 -20 -19 11 -16 -12 -1 17 4 -2 14 -7 4 -13 -21 4 2 19 19 -4 -33 -14 -15 21 6 -5 22 -15 18 11 2 -8 -24 -23 0 20 1 17 4 13 -16 4 23 44 -4 -2 6 -9 10 -13 11 -23 -7 -11 8 -3 -1 2 23 -14 -38 16 -31 -15 -6 -2 13 -37 40 -9 -6 0 -2 10 -25 -22 0 -21 -14 -34 5 -5 -13 13 -3 4 -38 -17 20 -16 10 8 7 -15 -9 -9 -12 15 1 -5 -14 5 1 -10 -29 -15 8 -8 -2 34 -12 -11 -11 3 0 0 0 0 0 0 0 0 0 0 0 0
-29 25 22 10 11 29 -13 -17 12 -21 10 -3 -24 0 -20 15 17 4 4 24 12 21 -27 -10 10 -15 5 40 -10 -7 8 -23 -14 -22 14 -15 8 -55 -22 -15 5 -44 5 2 20 -21 16 14 6 -21 -18 12 0 1 -5 4 -32 37 -1 13 16 -8 -26 -26 20 10 22 13 7 1 -9 0 2 -9 -1 -12 5 0 -4 -18 11 7 0 10 12 15 -1 -16 17 -12 -8 17 2 16 22 14 -12 -6 4 -6 21 14 -17 4 14 -29 25 6 -24 -15 -17 13 -3 14 -4 10 2 -22 19 -10 0 -12 33 -16 -23 34 -9 -23 0 0 0 0 0 0 0 0 0 0 0 0
8 12 0 -3 19 -10 -24 16 -3 -12 -16 5 29 8 4 0 3 -2 10 22 4 -6 -8 -1 -24 -11 17 23 4 -8 -7 9 4 -14 -13 -11 13 -13 -11 -21 4 -32 1 -4 -2 -4 -20 -2 5 -12 23 -2 15 4 -13 -2 -2 30 27 7 -18 -12 8 -14 -14 -2 -27 2 22 -20 -48 3 7 2 -18 3 -1 1 -5 -5 -4 -5 -7 -45 -7 11 -10 7 -32 -5 6 13 0 -8 8 -3 41 -1 5 -14 10 11 12 15 16 -1 -16 -13 16 1 -7 1 -9 25 12 -8 15 3 -10 6 4 -6 2 -9 -12 8 20 1 0 0 0 0 0 0 0 0 0 0 0 0
-6 4 15 -10 2 -4 -8 -13 38 14 4 -23 -15 4 -14 -33 -11 5 -8 12 -13 19 -40 -13 -13 43 -22 18 -7 11 7 -4 -27 -16 -15 -4 -13 9 -16 -41 -8 3 12 9 6 3 23 -14 -1 2 18 14 -3 -1 -9 16 -16 5 6 -1 -2 14 35 -11 10 -6 7 -19 -9 14 15 35 38 2 17 1 -9 -8 -15 -16 0 -23 12 -10 -13 -7 -14 16 -10 2 -1 11 8 -5 -19 -3 43 -15 18 21 -10 -6 18 11 35 4 4 -3 -9 -18 -2 2 -5 52 -6 1 -5 -18 -28 1 -13 -1 -15 7 -6 -17 5 6 0 0 0 0 0 0 0 0 0 0 0 0
-6 -3 5 21 -7 4 -6 -10 -30 41 26 -20 12 5 23 5 -23 -20 -6 21 14 -15 9 15 -23 -2 1 -16 23 -20 33 -9 -11 21 -24 1 -23 13 18 8 -2 -13 -2 -20 19 -2 0 3 1 -11 2 -8 -9 -5 23 11 -19 4 5 17 32 -47 -6 6 -20 -20 14 0 -8 -11 -28 -6 -17 -15 -1 63 -13 35 63 14 19 0 -29 4 -24 -9 -19 -8 1 -7 -13 3 11 14 -10 -46 -5 25 6 7 -30 19 -4 -4 24 33 10 3 -27 -34 10 -16 10 -8 -19 5 -6 8 7 -13 -3 16 11 -24 6 -26 12 -19 0 0 0 0 0 0 0 0 0 0 0 0
2 8 -13 9 -22 20 -2 13 -7 12 12 -2 4 27 28 -15 -15 -11 -2 -2 -26 -2 12 -15 34 -28 -18 -5 9 -19 -4 -4 -2 -34 35 -29 17 -3 -19 -22 -27 -13 7 13 -16 -13 11 0 24 -11 20 12 -19 -2 7 11 1 1 -23 20 -24 5 -14 6 -11 20 -11 32 -1 -4 -35 12 -7 -7 14 -15 -2 -6 -8 7 -4 12 -14 30 -1 2 -17 9 -11 -31 3 -7 -11 8 8 -10 -13 47 -9 22 -11 14 -26 0 8 -6 -6 12 -2 40 11 22 -1 14 -13 -3 -1 -22 0 -6 -9 7 2 7 -9 18 17 0 0 0 0 0 0 0 0 0 0 0 0 0
2 -23 1 -9 -16 22 -5 9 4 -5 -6 44 16 6 -21 20 -3 -9 0 10 18 -28 13 -13 -11 -2 0 -5 -15 -7 -19 0 1 -3 -27 13 6 -1 -3 -13 -4 8 -13 -14 -4 -1 -2 3 -8 -5 -10 -5 -5 -1 -2 24 -1 -14 -35 10 5 -14 -2 -21 14 -1 -37 32 -20 -2 -14 27 2 -11 10 -2 14 -17 -13 9 7 5 0 -59 17 0 -1 31 -16 -4 6 -7 -8 -13 12 10 14 17 -7 12 5 -17 -6 0 18 -16 -10 -3 -8 -1 -11 22 -8 10 12 9 -33 25 -3 -1 -15 7 18 -6 16 -21 -15 -24 0 0 0 0 0 0 0 0 0 0 0 0
-6 0 3 0 -18 -10 12 -9 -14 -9 -18 25 -12 0 -1 -3 27 -35 -6 -24 21 2 -19 -18 -8 7 -7 -6 18 15 -25 -27 1 18 -3 -44 22 2 12 -23 -9 -21 10 27 -2 5 1 -9 -17 -10 6 3 0 -28 5 35 -29 54 -29 -6 1 37 7 -9 -13 4 -19 -2 22 -28 17 -19 24 14 -5 6 1 11 -14 9 0 -6 22 2 -7 -6 25 3 14 -12 3 24 -9 -17 -2 -5 0 -17 -15 -3 -12 -8 -28 -35 8 6 17 11 -3 -14 -13 -11 9 7 2 -31 1 -15 19 27 -4 -20 -30 8 -18 -6 -1 0 0 0 0 0 0 0 0 0 0 0 0 0
