-28 -4 -38 0 -2 6 -4 17
-21 -14 3 -8 -3 11 -8 25
13 5 25 1 5 51 1 -9
-17 -6 -11 5 36 -7 -4 11
-8 -3 -13 0 -10 -6 -23 -1
12 1 -9 55 -31 -2 4 -4
7 -115 28 -1 1 -2 -4 -3
32 -1 8 -15 -6 -37 4 4
-2 -4 -9 -6 -9 -30 -2 5
-17 -4 5 -24 -10 19 9 20
-5 81 -17 1 -4 5 1 2
8 49 -6 -3 -5 -5 -4 -7
-1 -1 2 4 2 2 37 -1
-3 -8 -13 16 -33 2 -1 37
-6 9 -1 -4 -27 -3 19 -17
9 -4 -13 -5 7 12 4 11
8 -8 -27 -2 20 -1 -21 3
3 -1 -20 12 13 -31 -6 28
-2 0 0 3 -6 -37 12 -9
2 -3 -50 -3 15 -5 6 28
30 3 11 12 -32 -5 -7 21
15 0 -4 -1 15 -47 8 7
8 39 -7 8 -13 10 3 -4
-24 2 -6 -5 30 -4 1 -86
17 -67 26 0 -5 -2 -6 -10
-1 1 -12 -2 -1 -14 21 -1
4 -4 -5 -5 -3 1 127 4
3 -2 -16 4 -8 -10 26 -16
-18 2 11 -31 -27 -7 -3 -8
-5 2 0 8 19 5 4 -27
21 -5 -8 3 -4 -13 1 -32
-95 -3 12 -5 -32 -57 3 12
-36 -12 -1 -1 -7 -10 -3 -1
2 6 27 -7 16 18 -1 -37
4 4 26 -10 -2 -5 -13 -27
-33 0 -2 1 -35 11 -9 -5
-24 -3 -22 9 -11 -6 -19 -6
34 -2 -10 4 23 29 -3 3
-16 -38 -16 4 14 9 -3 9
-12 2 -15 33 -2 14 -7 2
-12 0 -6 -12 23 5 -16 -22
-6 12 37 18 -17 -26 7 -11
-19 5 20 9 -48 0 10 -15
-7 5 -8 -10 -5 2 -16 33
0 -7 33 2 -11 6 -4 -15
-5 -1 -2 -1 -38 36 -3 -28
3 0 -4 1 1 -7 -29 0
29 1 21 -8 -23 -2 2 -6
20 3 -4 24 -8 15 -3 -1
-4 -3 7 -19 -1 -1 -23 6
7 -3 -25 5 20 14 5 8
0 22 19 -4 -7 5 -6 -3
27 9 -8 3 -18 -11 1 12
-24 8 -25 2 22 14 5 -5
-12 9 -15 -5 -2 -24 -5 27
-23 17 60 63 -7 -30 0 1
-26 17 60 60 -6 -32 2 2
-4 20 -7 7 -1 5 6 0
36 2 6 -31 20 -19 -1 -1
23 5 10 -6 -23 -17 -6 -19
-1 -1 4 -2 -5 8 21 25
49 4 8 3 15 18 -13 -4
-24 -4 -10 10 -9 30 16 4
9 2 3 2 4 -26 -1 -20
-17 2 -1 3 30 0 3 -109
-7 0 18 -76 28 0 -7 2
11 -16 -6 -3 19 -15 -5 31
19 21 5 -5 19 -28 3 9
-23 -6 -2 -52 40 7 -9 1
32 6 3 -1 1 -9 2 -20
-41 -3 -3 1 -78 25 -1 -17
38 4 3 9 26 -5 1 2
-15 -5 15 7 54 -10 -2 1
19 2 0 3 43 -20 1 10
-15 -3 0 -8 -55 8 1 -14
27 6 12 7 -15 22 -6 -4
-6 -5 4 -69 -12 11 14 -12
34 9 8 -2 22 12 7 2
-5 5 5 73 10 3 2 3
25 -7 -23 -17 -5 15 5 -7
-13 45 -18 -3 3 3 -2 11
1 0 -5 28 4 -13 -39 14
0 4 21 -81 16 -6 -7 -3
8 -1 0 5 1 -17 -38 -11
-46 9 39 0 -25 -50 5 -6
8 -3 -13 -49 -8 -23 -4 7
23 3 -2 -19 -17 28 4 -16
-23 -1 -13 55 5 5 3 -15
18 7 23 -6 22 -31 4 -1
-29 11 4 -4 7 17 -1 15
9 -5 -1 4 -17 -3 19 2
-19 4 8 6 4 0 -10 4
1 7 29 -9 6 25 -13 0
-4 3 4 4 3 -1 -109 -4
5 -6 10 6 3 17 -6 -41
10 -5 -21 -12 4 6 -27 -1
7 -3 -26 -2 -6 -53 -6 -11
16 14 5 -3 9 0 -7 -30
18 3 0 14 -26 5 -3 -22
-4 -4 14 8 -10 -6 1 -29
-18 3 -1 -3 25 2 -2 -91
-5 4 18 -14 16 8 28 13
0 -6 1 3 7 -14 10 50
-4 5 11 39 18 1 -11 29
18 -3 -17 -2 1 -28 16 -7
20 4 12 -40 -15 8 -4 -14
9 -10 -38 -12 0 15 -1 -1
25 2 -2 -9 9 -28 8 -11
8 -8 -32 16 -1 -2 10 -5
6 0 0 0 -16 4 -6 75
-18 5 -20 4 -6 0 9 19
-6 -1 2 -8 -49 -3 -10 -10
11 8 34 -7 13 3 -7 6
29 2 0 16 -29 -17 -14 -1
7 -4 -16 37 -6 -6 12 -1
7 1 13 -9 1 10 -20 9
4 -1 -10 2 -13 -2 -20 -7
-7 -62 6 -2 7 1 4 8
12 0 4 -43 -19 -32 -6 -11
16 -25 10 -2 15 -13 -1 2
-14 -1 4 -3 4 5 18 -12
-11 -7 -22 -18 -2 12 -10 1
13 1 -2 -2 -28 -7 1 35
-1 9 6 -15 21 -4 12 -16
23 12 38 -14 -3 -1 21 -5
15 -3 5 16 -2 26 2 -8
4 2 4 -13 1 -44 13 -10
-3 -10 -25 -36 -7 -3 -1 -6
